tree
version=v4
num_class=18
num_tree_per_iteration=18
label_index=0
max_feature_idx=4999
objective=multiclass num_class:18
feature_names=Column_0 Column_1 Column_2 Column_3 Column_4 Column_5 Column_6 Column_7 Column_8 Column_9 Column_10 Column_11 Column_12 Column_13 Column_14 Column_15 Column_16 Column_17 Column_18 Column_19 Column_20 Column_21 Column_22 Column_23 Column_24 Column_25 Column_26 Column_27 Column_28 Column_29 Column_30 Column_31 Column_32 Column_33 Column_34 Column_35 Column_36 Column_37 Column_38 Column_39 Column_40 Column_41 Column_42 Column_43 Column_44 Column_45 Column_46 Column_47 Column_48 Column_49 Column_50 Column_51 Column_52 Column_53 Column_54 Column_55 Column_56 Column_57 Column_58 Column_59 Column_60 Column_61 Column_62 Column_63 Column_64 Column_65 Column_66 Column_67 Column_68 Column_69 Column_70 Column_71 Column_72 Column_73 Column_74 Column_75 Column_76 Column_77 Column_78 Column_79 Column_80 Column_81 Column_82 Column_83 Column_84 Column_85 Column_86 Column_87 Column_88 Column_89 Column_90 Column_91 Column_92 Column_93 Column_94 Column_95 Column_96 Column_97 Column_98 Column_99 Column_100 Column_101 Column_102 Column_103 Column_104 Column_105 Column_106 Column_107 Column_108 Column_109 Column_110 Column_111 Column_112 Column_113 Column_114 Column_115 Column_116 Column_117 Column_118 Column_119 Column_120 Column_121 Column_122 Column_123 Column_124 Column_125 Column_126 Column_127 Column_128 Column_129 Column_130 Column_131 Column_132 Column_133 Column_134 Column_135 Column_136 Column_137 Column_138 Column_139 Column_140 Column_141 Column_142 Column_143 Column_144 Column_145 Column_146 Column_147 Column_148 Column_149 Column_150 Column_151 Column_152 Column_153 Column_154 Column_155 Column_156 Column_157 Column_158 Column_159 Column_160 Column_161 Column_162 Column_163 Column_164 Column_165 Column_166 Column_167 Column_168 Column_169 Column_170 Column_171 Column_172 Column_173 Column_174 Column_175 Column_176 Column_177 Column_178 Column_179 Column_180 Column_181 Column_182 Column_183 Column_184 Column_185 Column_186 Column_187 Column_188 Column_189 Column_190 Column_191 Column_192 Column_193 Column_194 Column_195 Column_196 Column_197 Column_198 Column_199 Column_200 Column_201 Column_202 Column_203 Column_204 Column_205 Column_206 Column_207 Column_208 Column_209 Column_210 Column_211 Column_212 Column_213 Column_214 Column_215 Column_216 Column_217 Column_218 Column_219 Column_220 Column_221 Column_222 Column_223 Column_224 Column_225 Column_226 Column_227 Column_228 Column_229 Column_230 Column_231 Column_232 Column_233 Column_234 Column_235 Column_236 Column_237 Column_238 Column_239 Column_240 Column_241 Column_242 Column_243 Column_244 Column_245 Column_246 Column_247 Column_248 Column_249 Column_250 Column_251 Column_252 Column_253 Column_254 Column_255 Column_256 Column_257 Column_258 Column_259 Column_260 Column_261 Column_262 Column_263 Column_264 Column_265 Column_266 Column_267 Column_268 Column_269 Column_270 Column_271 Column_272 Column_273 Column_274 Column_275 Column_276 Column_277 Column_278 Column_279 Column_280 Column_281 Column_282 Column_283 Column_284 Column_285 Column_286 Column_287 Column_288 Column_289 Column_290 Column_291 Column_292 Column_293 Column_294 Column_295 Column_296 Column_297 Column_298 Column_299 Column_300 Column_301 Column_302 Column_303 Column_304 Column_305 Column_306 Column_307 Column_308 Column_309 Column_310 Column_311 Column_312 Column_313 Column_314 Column_315 Column_316 Column_317 Column_318 Column_319 Column_320 Column_321 Column_322 Column_323 Column_324 Column_325 Column_326 Column_327 Column_328 Column_329 Column_330 Column_331 Column_332 Column_333 Column_334 Column_335 Column_336 Column_337 Column_338 Column_339 Column_340 Column_341 Column_342 Column_343 Column_344 Column_345 Column_346 Column_347 Column_348 Column_349 Column_350 Column_351 Column_352 Column_353 Column_354 Column_355 Column_356 Column_357 Column_358 Column_359 Column_360 Column_361 Column_362 Column_363 Column_364 Column_365 Column_366 Column_367 Column_368 Column_369 Column_370 Column_371 Column_372 Column_373 Column_374 Column_375 Column_376 Column_377 Column_378 Column_379 Column_380 Column_381 Column_382 Column_383 Column_384 Column_385 Column_386 Column_387 Column_388 Column_389 Column_390 Column_391 Column_392 Column_393 Column_394 Column_395 Column_396 Column_397 Column_398 Column_399 Column_400 Column_401 Column_402 Column_403 Column_404 Column_405 Column_406 Column_407 Column_408 Column_409 Column_410 Column_411 Column_412 Column_413 Column_414 Column_415 Column_416 Column_417 Column_418 Column_419 Column_420 Column_421 Column_422 Column_423 Column_424 Column_425 Column_426 Column_427 Column_428 Column_429 Column_430 Column_431 Column_432 Column_433 Column_434 Column_435 Column_436 Column_437 Column_438 Column_439 Column_440 Column_441 Column_442 Column_443 Column_444 Column_445 Column_446 Column_447 Column_448 Column_449 Column_450 Column_451 Column_452 Column_453 Column_454 Column_455 Column_456 Column_457 Column_458 Column_459 Column_460 Column_461 Column_462 Column_463 Column_464 Column_465 Column_466 Column_467 Column_468 Column_469 Column_470 Column_471 Column_472 Column_473 Column_474 Column_475 Column_476 Column_477 Column_478 Column_479 Column_480 Column_481 Column_482 Column_483 Column_484 Column_485 Column_486 Column_487 Column_488 Column_489 Column_490 Column_491 Column_492 Column_493 Column_494 Column_495 Column_496 Column_497 Column_498 Column_499 Column_500 Column_501 Column_502 Column_503 Column_504 Column_505 Column_506 Column_507 Column_508 Column_509 Column_510 Column_511 Column_512 Column_513 Column_514 Column_515 Column_516 Column_517 Column_518 Column_519 Column_520 Column_521 Column_522 Column_523 Column_524 Column_525 Column_526 Column_527 Column_528 Column_529 Column_530 Column_531 Column_532 Column_533 Column_534 Column_535 Column_536 Column_537 Column_538 Column_539 Column_540 Column_541 Column_542 Column_543 Column_544 Column_545 Column_546 Column_547 Column_548 Column_549 Column_550 Column_551 Column_552 Column_553 Column_554 Column_555 Column_556 Column_557 Column_558 Column_559 Column_560 Column_561 Column_562 Column_563 Column_564 Column_565 Column_566 Column_567 Column_568 Column_569 Column_570 Column_571 Column_572 Column_573 Column_574 Column_575 Column_576 Column_577 Column_578 Column_579 Column_580 Column_581 Column_582 Column_583 Column_584 Column_585 Column_586 Column_587 Column_588 Column_589 Column_590 Column_591 Column_592 Column_593 Column_594 Column_595 Column_596 Column_597 Column_598 Column_599 Column_600 Column_601 Column_602 Column_603 Column_604 Column_605 Column_606 Column_607 Column_608 Column_609 Column_610 Column_611 Column_612 Column_613 Column_614 Column_615 Column_616 Column_617 Column_618 Column_619 Column_620 Column_621 Column_622 Column_623 Column_624 Column_625 Column_626 Column_627 Column_628 Column_629 Column_630 Column_631 Column_632 Column_633 Column_634 Column_635 Column_636 Column_637 Column_638 Column_639 Column_640 Column_641 Column_642 Column_643 Column_644 Column_645 Column_646 Column_647 Column_648 Column_649 Column_650 Column_651 Column_652 Column_653 Column_654 Column_655 Column_656 Column_657 Column_658 Column_659 Column_660 Column_661 Column_662 Column_663 Column_664 Column_665 Column_666 Column_667 Column_668 Column_669 Column_670 Column_671 Column_672 Column_673 Column_674 Column_675 Column_676 Column_677 Column_678 Column_679 Column_680 Column_681 Column_682 Column_683 Column_684 Column_685 Column_686 Column_687 Column_688 Column_689 Column_690 Column_691 Column_692 Column_693 Column_694 Column_695 Column_696 Column_697 Column_698 Column_699 Column_700 Column_701 Column_702 Column_703 Column_704 Column_705 Column_706 Column_707 Column_708 Column_709 Column_710 Column_711 Column_712 Column_713 Column_714 Column_715 Column_716 Column_717 Column_718 Column_719 Column_720 Column_721 Column_722 Column_723 Column_724 Column_725 Column_726 Column_727 Column_728 Column_729 Column_730 Column_731 Column_732 Column_733 Column_734 Column_735 Column_736 Column_737 Column_738 Column_739 Column_740 Column_741 Column_742 Column_743 Column_744 Column_745 Column_746 Column_747 Column_748 Column_749 Column_750 Column_751 Column_752 Column_753 Column_754 Column_755 Column_756 Column_757 Column_758 Column_759 Column_760 Column_761 Column_762 Column_763 Column_764 Column_765 Column_766 Column_767 Column_768 Column_769 Column_770 Column_771 Column_772 Column_773 Column_774 Column_775 Column_776 Column_777 Column_778 Column_779 Column_780 Column_781 Column_782 Column_783 Column_784 Column_785 Column_786 Column_787 Column_788 Column_789 Column_790 Column_791 Column_792 Column_793 Column_794 Column_795 Column_796 Column_797 Column_798 Column_799 Column_800 Column_801 Column_802 Column_803 Column_804 Column_805 Column_806 Column_807 Column_808 Column_809 Column_810 Column_811 Column_812 Column_813 Column_814 Column_815 Column_816 Column_817 Column_818 Column_819 Column_820 Column_821 Column_822 Column_823 Column_824 Column_825 Column_826 Column_827 Column_828 Column_829 Column_830 Column_831 Column_832 Column_833 Column_834 Column_835 Column_836 Column_837 Column_838 Column_839 Column_840 Column_841 Column_842 Column_843 Column_844 Column_845 Column_846 Column_847 Column_848 Column_849 Column_850 Column_851 Column_852 Column_853 Column_854 Column_855 Column_856 Column_857 Column_858 Column_859 Column_860 Column_861 Column_862 Column_863 Column_864 Column_865 Column_866 Column_867 Column_868 Column_869 Column_870 Column_871 Column_872 Column_873 Column_874 Column_875 Column_876 Column_877 Column_878 Column_879 Column_880 Column_881 Column_882 Column_883 Column_884 Column_885 Column_886 Column_887 Column_888 Column_889 Column_890 Column_891 Column_892 Column_893 Column_894 Column_895 Column_896 Column_897 Column_898 Column_899 Column_900 Column_901 Column_902 Column_903 Column_904 Column_905 Column_906 Column_907 Column_908 Column_909 Column_910 Column_911 Column_912 Column_913 Column_914 Column_915 Column_916 Column_917 Column_918 Column_919 Column_920 Column_921 Column_922 Column_923 Column_924 Column_925 Column_926 Column_927 Column_928 Column_929 Column_930 Column_931 Column_932 Column_933 Column_934 Column_935 Column_936 Column_937 Column_938 Column_939 Column_940 Column_941 Column_942 Column_943 Column_944 Column_945 Column_946 Column_947 Column_948 Column_949 Column_950 Column_951 Column_952 Column_953 Column_954 Column_955 Column_956 Column_957 Column_958 Column_959 Column_960 Column_961 Column_962 Column_963 Column_964 Column_965 Column_966 Column_967 Column_968 Column_969 Column_970 Column_971 Column_972 Column_973 Column_974 Column_975 Column_976 Column_977 Column_978 Column_979 Column_980 Column_981 Column_982 Column_983 Column_984 Column_985 Column_986 Column_987 Column_988 Column_989 Column_990 Column_991 Column_992 Column_993 Column_994 Column_995 Column_996 Column_997 Column_998 Column_999 Column_1000 Column_1001 Column_1002 Column_1003 Column_1004 Column_1005 Column_1006 Column_1007 Column_1008 Column_1009 Column_1010 Column_1011 Column_1012 Column_1013 Column_1014 Column_1015 Column_1016 Column_1017 Column_1018 Column_1019 Column_1020 Column_1021 Column_1022 Column_1023 Column_1024 Column_1025 Column_1026 Column_1027 Column_1028 Column_1029 Column_1030 Column_1031 Column_1032 Column_1033 Column_1034 Column_1035 Column_1036 Column_1037 Column_1038 Column_1039 Column_1040 Column_1041 Column_1042 Column_1043 Column_1044 Column_1045 Column_1046 Column_1047 Column_1048 Column_1049 Column_1050 Column_1051 Column_1052 Column_1053 Column_1054 Column_1055 Column_1056 Column_1057 Column_1058 Column_1059 Column_1060 Column_1061 Column_1062 Column_1063 Column_1064 Column_1065 Column_1066 Column_1067 Column_1068 Column_1069 Column_1070 Column_1071 Column_1072 Column_1073 Column_1074 Column_1075 Column_1076 Column_1077 Column_1078 Column_1079 Column_1080 Column_1081 Column_1082 Column_1083 Column_1084 Column_1085 Column_1086 Column_1087 Column_1088 Column_1089 Column_1090 Column_1091 Column_1092 Column_1093 Column_1094 Column_1095 Column_1096 Column_1097 Column_1098 Column_1099 Column_1100 Column_1101 Column_1102 Column_1103 Column_1104 Column_1105 Column_1106 Column_1107 Column_1108 Column_1109 Column_1110 Column_1111 Column_1112 Column_1113 Column_1114 Column_1115 Column_1116 Column_1117 Column_1118 Column_1119 Column_1120 Column_1121 Column_1122 Column_1123 Column_1124 Column_1125 Column_1126 Column_1127 Column_1128 Column_1129 Column_1130 Column_1131 Column_1132 Column_1133 Column_1134 Column_1135 Column_1136 Column_1137 Column_1138 Column_1139 Column_1140 Column_1141 Column_1142 Column_1143 Column_1144 Column_1145 Column_1146 Column_1147 Column_1148 Column_1149 Column_1150 Column_1151 Column_1152 Column_1153 Column_1154 Column_1155 Column_1156 Column_1157 Column_1158 Column_1159 Column_1160 Column_1161 Column_1162 Column_1163 Column_1164 Column_1165 Column_1166 Column_1167 Column_1168 Column_1169 Column_1170 Column_1171 Column_1172 Column_1173 Column_1174 Column_1175 Column_1176 Column_1177 Column_1178 Column_1179 Column_1180 Column_1181 Column_1182 Column_1183 Column_1184 Column_1185 Column_1186 Column_1187 Column_1188 Column_1189 Column_1190 Column_1191 Column_1192 Column_1193 Column_1194 Column_1195 Column_1196 Column_1197 Column_1198 Column_1199 Column_1200 Column_1201 Column_1202 Column_1203 Column_1204 Column_1205 Column_1206 Column_1207 Column_1208 Column_1209 Column_1210 Column_1211 Column_1212 Column_1213 Column_1214 Column_1215 Column_1216 Column_1217 Column_1218 Column_1219 Column_1220 Column_1221 Column_1222 Column_1223 Column_1224 Column_1225 Column_1226 Column_1227 Column_1228 Column_1229 Column_1230 Column_1231 Column_1232 Column_1233 Column_1234 Column_1235 Column_1236 Column_1237 Column_1238 Column_1239 Column_1240 Column_1241 Column_1242 Column_1243 Column_1244 Column_1245 Column_1246 Column_1247 Column_1248 Column_1249 Column_1250 Column_1251 Column_1252 Column_1253 Column_1254 Column_1255 Column_1256 Column_1257 Column_1258 Column_1259 Column_1260 Column_1261 Column_1262 Column_1263 Column_1264 Column_1265 Column_1266 Column_1267 Column_1268 Column_1269 Column_1270 Column_1271 Column_1272 Column_1273 Column_1274 Column_1275 Column_1276 Column_1277 Column_1278 Column_1279 Column_1280 Column_1281 Column_1282 Column_1283 Column_1284 Column_1285 Column_1286 Column_1287 Column_1288 Column_1289 Column_1290 Column_1291 Column_1292 Column_1293 Column_1294 Column_1295 Column_1296 Column_1297 Column_1298 Column_1299 Column_1300 Column_1301 Column_1302 Column_1303 Column_1304 Column_1305 Column_1306 Column_1307 Column_1308 Column_1309 Column_1310 Column_1311 Column_1312 Column_1313 Column_1314 Column_1315 Column_1316 Column_1317 Column_1318 Column_1319 Column_1320 Column_1321 Column_1322 Column_1323 Column_1324 Column_1325 Column_1326 Column_1327 Column_1328 Column_1329 Column_1330 Column_1331 Column_1332 Column_1333 Column_1334 Column_1335 Column_1336 Column_1337 Column_1338 Column_1339 Column_1340 Column_1341 Column_1342 Column_1343 Column_1344 Column_1345 Column_1346 Column_1347 Column_1348 Column_1349 Column_1350 Column_1351 Column_1352 Column_1353 Column_1354 Column_1355 Column_1356 Column_1357 Column_1358 Column_1359 Column_1360 Column_1361 Column_1362 Column_1363 Column_1364 Column_1365 Column_1366 Column_1367 Column_1368 Column_1369 Column_1370 Column_1371 Column_1372 Column_1373 Column_1374 Column_1375 Column_1376 Column_1377 Column_1378 Column_1379 Column_1380 Column_1381 Column_1382 Column_1383 Column_1384 Column_1385 Column_1386 Column_1387 Column_1388 Column_1389 Column_1390 Column_1391 Column_1392 Column_1393 Column_1394 Column_1395 Column_1396 Column_1397 Column_1398 Column_1399 Column_1400 Column_1401 Column_1402 Column_1403 Column_1404 Column_1405 Column_1406 Column_1407 Column_1408 Column_1409 Column_1410 Column_1411 Column_1412 Column_1413 Column_1414 Column_1415 Column_1416 Column_1417 Column_1418 Column_1419 Column_1420 Column_1421 Column_1422 Column_1423 Column_1424 Column_1425 Column_1426 Column_1427 Column_1428 Column_1429 Column_1430 Column_1431 Column_1432 Column_1433 Column_1434 Column_1435 Column_1436 Column_1437 Column_1438 Column_1439 Column_1440 Column_1441 Column_1442 Column_1443 Column_1444 Column_1445 Column_1446 Column_1447 Column_1448 Column_1449 Column_1450 Column_1451 Column_1452 Column_1453 Column_1454 Column_1455 Column_1456 Column_1457 Column_1458 Column_1459 Column_1460 Column_1461 Column_1462 Column_1463 Column_1464 Column_1465 Column_1466 Column_1467 Column_1468 Column_1469 Column_1470 Column_1471 Column_1472 Column_1473 Column_1474 Column_1475 Column_1476 Column_1477 Column_1478 Column_1479 Column_1480 Column_1481 Column_1482 Column_1483 Column_1484 Column_1485 Column_1486 Column_1487 Column_1488 Column_1489 Column_1490 Column_1491 Column_1492 Column_1493 Column_1494 Column_1495 Column_1496 Column_1497 Column_1498 Column_1499 Column_1500 Column_1501 Column_1502 Column_1503 Column_1504 Column_1505 Column_1506 Column_1507 Column_1508 Column_1509 Column_1510 Column_1511 Column_1512 Column_1513 Column_1514 Column_1515 Column_1516 Column_1517 Column_1518 Column_1519 Column_1520 Column_1521 Column_1522 Column_1523 Column_1524 Column_1525 Column_1526 Column_1527 Column_1528 Column_1529 Column_1530 Column_1531 Column_1532 Column_1533 Column_1534 Column_1535 Column_1536 Column_1537 Column_1538 Column_1539 Column_1540 Column_1541 Column_1542 Column_1543 Column_1544 Column_1545 Column_1546 Column_1547 Column_1548 Column_1549 Column_1550 Column_1551 Column_1552 Column_1553 Column_1554 Column_1555 Column_1556 Column_1557 Column_1558 Column_1559 Column_1560 Column_1561 Column_1562 Column_1563 Column_1564 Column_1565 Column_1566 Column_1567 Column_1568 Column_1569 Column_1570 Column_1571 Column_1572 Column_1573 Column_1574 Column_1575 Column_1576 Column_1577 Column_1578 Column_1579 Column_1580 Column_1581 Column_1582 Column_1583 Column_1584 Column_1585 Column_1586 Column_1587 Column_1588 Column_1589 Column_1590 Column_1591 Column_1592 Column_1593 Column_1594 Column_1595 Column_1596 Column_1597 Column_1598 Column_1599 Column_1600 Column_1601 Column_1602 Column_1603 Column_1604 Column_1605 Column_1606 Column_1607 Column_1608 Column_1609 Column_1610 Column_1611 Column_1612 Column_1613 Column_1614 Column_1615 Column_1616 Column_1617 Column_1618 Column_1619 Column_1620 Column_1621 Column_1622 Column_1623 Column_1624 Column_1625 Column_1626 Column_1627 Column_1628 Column_1629 Column_1630 Column_1631 Column_1632 Column_1633 Column_1634 Column_1635 Column_1636 Column_1637 Column_1638 Column_1639 Column_1640 Column_1641 Column_1642 Column_1643 Column_1644 Column_1645 Column_1646 Column_1647 Column_1648 Column_1649 Column_1650 Column_1651 Column_1652 Column_1653 Column_1654 Column_1655 Column_1656 Column_1657 Column_1658 Column_1659 Column_1660 Column_1661 Column_1662 Column_1663 Column_1664 Column_1665 Column_1666 Column_1667 Column_1668 Column_1669 Column_1670 Column_1671 Column_1672 Column_1673 Column_1674 Column_1675 Column_1676 Column_1677 Column_1678 Column_1679 Column_1680 Column_1681 Column_1682 Column_1683 Column_1684 Column_1685 Column_1686 Column_1687 Column_1688 Column_1689 Column_1690 Column_1691 Column_1692 Column_1693 Column_1694 Column_1695 Column_1696 Column_1697 Column_1698 Column_1699 Column_1700 Column_1701 Column_1702 Column_1703 Column_1704 Column_1705 Column_1706 Column_1707 Column_1708 Column_1709 Column_1710 Column_1711 Column_1712 Column_1713 Column_1714 Column_1715 Column_1716 Column_1717 Column_1718 Column_1719 Column_1720 Column_1721 Column_1722 Column_1723 Column_1724 Column_1725 Column_1726 Column_1727 Column_1728 Column_1729 Column_1730 Column_1731 Column_1732 Column_1733 Column_1734 Column_1735 Column_1736 Column_1737 Column_1738 Column_1739 Column_1740 Column_1741 Column_1742 Column_1743 Column_1744 Column_1745 Column_1746 Column_1747 Column_1748 Column_1749 Column_1750 Column_1751 Column_1752 Column_1753 Column_1754 Column_1755 Column_1756 Column_1757 Column_1758 Column_1759 Column_1760 Column_1761 Column_1762 Column_1763 Column_1764 Column_1765 Column_1766 Column_1767 Column_1768 Column_1769 Column_1770 Column_1771 Column_1772 Column_1773 Column_1774 Column_1775 Column_1776 Column_1777 Column_1778 Column_1779 Column_1780 Column_1781 Column_1782 Column_1783 Column_1784 Column_1785 Column_1786 Column_1787 Column_1788 Column_1789 Column_1790 Column_1791 Column_1792 Column_1793 Column_1794 Column_1795 Column_1796 Column_1797 Column_1798 Column_1799 Column_1800 Column_1801 Column_1802 Column_1803 Column_1804 Column_1805 Column_1806 Column_1807 Column_1808 Column_1809 Column_1810 Column_1811 Column_1812 Column_1813 Column_1814 Column_1815 Column_1816 Column_1817 Column_1818 Column_1819 Column_1820 Column_1821 Column_1822 Column_1823 Column_1824 Column_1825 Column_1826 Column_1827 Column_1828 Column_1829 Column_1830 Column_1831 Column_1832 Column_1833 Column_1834 Column_1835 Column_1836 Column_1837 Column_1838 Column_1839 Column_1840 Column_1841 Column_1842 Column_1843 Column_1844 Column_1845 Column_1846 Column_1847 Column_1848 Column_1849 Column_1850 Column_1851 Column_1852 Column_1853 Column_1854 Column_1855 Column_1856 Column_1857 Column_1858 Column_1859 Column_1860 Column_1861 Column_1862 Column_1863 Column_1864 Column_1865 Column_1866 Column_1867 Column_1868 Column_1869 Column_1870 Column_1871 Column_1872 Column_1873 Column_1874 Column_1875 Column_1876 Column_1877 Column_1878 Column_1879 Column_1880 Column_1881 Column_1882 Column_1883 Column_1884 Column_1885 Column_1886 Column_1887 Column_1888 Column_1889 Column_1890 Column_1891 Column_1892 Column_1893 Column_1894 Column_1895 Column_1896 Column_1897 Column_1898 Column_1899 Column_1900 Column_1901 Column_1902 Column_1903 Column_1904 Column_1905 Column_1906 Column_1907 Column_1908 Column_1909 Column_1910 Column_1911 Column_1912 Column_1913 Column_1914 Column_1915 Column_1916 Column_1917 Column_1918 Column_1919 Column_1920 Column_1921 Column_1922 Column_1923 Column_1924 Column_1925 Column_1926 Column_1927 Column_1928 Column_1929 Column_1930 Column_1931 Column_1932 Column_1933 Column_1934 Column_1935 Column_1936 Column_1937 Column_1938 Column_1939 Column_1940 Column_1941 Column_1942 Column_1943 Column_1944 Column_1945 Column_1946 Column_1947 Column_1948 Column_1949 Column_1950 Column_1951 Column_1952 Column_1953 Column_1954 Column_1955 Column_1956 Column_1957 Column_1958 Column_1959 Column_1960 Column_1961 Column_1962 Column_1963 Column_1964 Column_1965 Column_1966 Column_1967 Column_1968 Column_1969 Column_1970 Column_1971 Column_1972 Column_1973 Column_1974 Column_1975 Column_1976 Column_1977 Column_1978 Column_1979 Column_1980 Column_1981 Column_1982 Column_1983 Column_1984 Column_1985 Column_1986 Column_1987 Column_1988 Column_1989 Column_1990 Column_1991 Column_1992 Column_1993 Column_1994 Column_1995 Column_1996 Column_1997 Column_1998 Column_1999 Column_2000 Column_2001 Column_2002 Column_2003 Column_2004 Column_2005 Column_2006 Column_2007 Column_2008 Column_2009 Column_2010 Column_2011 Column_2012 Column_2013 Column_2014 Column_2015 Column_2016 Column_2017 Column_2018 Column_2019 Column_2020 Column_2021 Column_2022 Column_2023 Column_2024 Column_2025 Column_2026 Column_2027 Column_2028 Column_2029 Column_2030 Column_2031 Column_2032 Column_2033 Column_2034 Column_2035 Column_2036 Column_2037 Column_2038 Column_2039 Column_2040 Column_2041 Column_2042 Column_2043 Column_2044 Column_2045 Column_2046 Column_2047 Column_2048 Column_2049 Column_2050 Column_2051 Column_2052 Column_2053 Column_2054 Column_2055 Column_2056 Column_2057 Column_2058 Column_2059 Column_2060 Column_2061 Column_2062 Column_2063 Column_2064 Column_2065 Column_2066 Column_2067 Column_2068 Column_2069 Column_2070 Column_2071 Column_2072 Column_2073 Column_2074 Column_2075 Column_2076 Column_2077 Column_2078 Column_2079 Column_2080 Column_2081 Column_2082 Column_2083 Column_2084 Column_2085 Column_2086 Column_2087 Column_2088 Column_2089 Column_2090 Column_2091 Column_2092 Column_2093 Column_2094 Column_2095 Column_2096 Column_2097 Column_2098 Column_2099 Column_2100 Column_2101 Column_2102 Column_2103 Column_2104 Column_2105 Column_2106 Column_2107 Column_2108 Column_2109 Column_2110 Column_2111 Column_2112 Column_2113 Column_2114 Column_2115 Column_2116 Column_2117 Column_2118 Column_2119 Column_2120 Column_2121 Column_2122 Column_2123 Column_2124 Column_2125 Column_2126 Column_2127 Column_2128 Column_2129 Column_2130 Column_2131 Column_2132 Column_2133 Column_2134 Column_2135 Column_2136 Column_2137 Column_2138 Column_2139 Column_2140 Column_2141 Column_2142 Column_2143 Column_2144 Column_2145 Column_2146 Column_2147 Column_2148 Column_2149 Column_2150 Column_2151 Column_2152 Column_2153 Column_2154 Column_2155 Column_2156 Column_2157 Column_2158 Column_2159 Column_2160 Column_2161 Column_2162 Column_2163 Column_2164 Column_2165 Column_2166 Column_2167 Column_2168 Column_2169 Column_2170 Column_2171 Column_2172 Column_2173 Column_2174 Column_2175 Column_2176 Column_2177 Column_2178 Column_2179 Column_2180 Column_2181 Column_2182 Column_2183 Column_2184 Column_2185 Column_2186 Column_2187 Column_2188 Column_2189 Column_2190 Column_2191 Column_2192 Column_2193 Column_2194 Column_2195 Column_2196 Column_2197 Column_2198 Column_2199 Column_2200 Column_2201 Column_2202 Column_2203 Column_2204 Column_2205 Column_2206 Column_2207 Column_2208 Column_2209 Column_2210 Column_2211 Column_2212 Column_2213 Column_2214 Column_2215 Column_2216 Column_2217 Column_2218 Column_2219 Column_2220 Column_2221 Column_2222 Column_2223 Column_2224 Column_2225 Column_2226 Column_2227 Column_2228 Column_2229 Column_2230 Column_2231 Column_2232 Column_2233 Column_2234 Column_2235 Column_2236 Column_2237 Column_2238 Column_2239 Column_2240 Column_2241 Column_2242 Column_2243 Column_2244 Column_2245 Column_2246 Column_2247 Column_2248 Column_2249 Column_2250 Column_2251 Column_2252 Column_2253 Column_2254 Column_2255 Column_2256 Column_2257 Column_2258 Column_2259 Column_2260 Column_2261 Column_2262 Column_2263 Column_2264 Column_2265 Column_2266 Column_2267 Column_2268 Column_2269 Column_2270 Column_2271 Column_2272 Column_2273 Column_2274 Column_2275 Column_2276 Column_2277 Column_2278 Column_2279 Column_2280 Column_2281 Column_2282 Column_2283 Column_2284 Column_2285 Column_2286 Column_2287 Column_2288 Column_2289 Column_2290 Column_2291 Column_2292 Column_2293 Column_2294 Column_2295 Column_2296 Column_2297 Column_2298 Column_2299 Column_2300 Column_2301 Column_2302 Column_2303 Column_2304 Column_2305 Column_2306 Column_2307 Column_2308 Column_2309 Column_2310 Column_2311 Column_2312 Column_2313 Column_2314 Column_2315 Column_2316 Column_2317 Column_2318 Column_2319 Column_2320 Column_2321 Column_2322 Column_2323 Column_2324 Column_2325 Column_2326 Column_2327 Column_2328 Column_2329 Column_2330 Column_2331 Column_2332 Column_2333 Column_2334 Column_2335 Column_2336 Column_2337 Column_2338 Column_2339 Column_2340 Column_2341 Column_2342 Column_2343 Column_2344 Column_2345 Column_2346 Column_2347 Column_2348 Column_2349 Column_2350 Column_2351 Column_2352 Column_2353 Column_2354 Column_2355 Column_2356 Column_2357 Column_2358 Column_2359 Column_2360 Column_2361 Column_2362 Column_2363 Column_2364 Column_2365 Column_2366 Column_2367 Column_2368 Column_2369 Column_2370 Column_2371 Column_2372 Column_2373 Column_2374 Column_2375 Column_2376 Column_2377 Column_2378 Column_2379 Column_2380 Column_2381 Column_2382 Column_2383 Column_2384 Column_2385 Column_2386 Column_2387 Column_2388 Column_2389 Column_2390 Column_2391 Column_2392 Column_2393 Column_2394 Column_2395 Column_2396 Column_2397 Column_2398 Column_2399 Column_2400 Column_2401 Column_2402 Column_2403 Column_2404 Column_2405 Column_2406 Column_2407 Column_2408 Column_2409 Column_2410 Column_2411 Column_2412 Column_2413 Column_2414 Column_2415 Column_2416 Column_2417 Column_2418 Column_2419 Column_2420 Column_2421 Column_2422 Column_2423 Column_2424 Column_2425 Column_2426 Column_2427 Column_2428 Column_2429 Column_2430 Column_2431 Column_2432 Column_2433 Column_2434 Column_2435 Column_2436 Column_2437 Column_2438 Column_2439 Column_2440 Column_2441 Column_2442 Column_2443 Column_2444 Column_2445 Column_2446 Column_2447 Column_2448 Column_2449 Column_2450 Column_2451 Column_2452 Column_2453 Column_2454 Column_2455 Column_2456 Column_2457 Column_2458 Column_2459 Column_2460 Column_2461 Column_2462 Column_2463 Column_2464 Column_2465 Column_2466 Column_2467 Column_2468 Column_2469 Column_2470 Column_2471 Column_2472 Column_2473 Column_2474 Column_2475 Column_2476 Column_2477 Column_2478 Column_2479 Column_2480 Column_2481 Column_2482 Column_2483 Column_2484 Column_2485 Column_2486 Column_2487 Column_2488 Column_2489 Column_2490 Column_2491 Column_2492 Column_2493 Column_2494 Column_2495 Column_2496 Column_2497 Column_2498 Column_2499 Column_2500 Column_2501 Column_2502 Column_2503 Column_2504 Column_2505 Column_2506 Column_2507 Column_2508 Column_2509 Column_2510 Column_2511 Column_2512 Column_2513 Column_2514 Column_2515 Column_2516 Column_2517 Column_2518 Column_2519 Column_2520 Column_2521 Column_2522 Column_2523 Column_2524 Column_2525 Column_2526 Column_2527 Column_2528 Column_2529 Column_2530 Column_2531 Column_2532 Column_2533 Column_2534 Column_2535 Column_2536 Column_2537 Column_2538 Column_2539 Column_2540 Column_2541 Column_2542 Column_2543 Column_2544 Column_2545 Column_2546 Column_2547 Column_2548 Column_2549 Column_2550 Column_2551 Column_2552 Column_2553 Column_2554 Column_2555 Column_2556 Column_2557 Column_2558 Column_2559 Column_2560 Column_2561 Column_2562 Column_2563 Column_2564 Column_2565 Column_2566 Column_2567 Column_2568 Column_2569 Column_2570 Column_2571 Column_2572 Column_2573 Column_2574 Column_2575 Column_2576 Column_2577 Column_2578 Column_2579 Column_2580 Column_2581 Column_2582 Column_2583 Column_2584 Column_2585 Column_2586 Column_2587 Column_2588 Column_2589 Column_2590 Column_2591 Column_2592 Column_2593 Column_2594 Column_2595 Column_2596 Column_2597 Column_2598 Column_2599 Column_2600 Column_2601 Column_2602 Column_2603 Column_2604 Column_2605 Column_2606 Column_2607 Column_2608 Column_2609 Column_2610 Column_2611 Column_2612 Column_2613 Column_2614 Column_2615 Column_2616 Column_2617 Column_2618 Column_2619 Column_2620 Column_2621 Column_2622 Column_2623 Column_2624 Column_2625 Column_2626 Column_2627 Column_2628 Column_2629 Column_2630 Column_2631 Column_2632 Column_2633 Column_2634 Column_2635 Column_2636 Column_2637 Column_2638 Column_2639 Column_2640 Column_2641 Column_2642 Column_2643 Column_2644 Column_2645 Column_2646 Column_2647 Column_2648 Column_2649 Column_2650 Column_2651 Column_2652 Column_2653 Column_2654 Column_2655 Column_2656 Column_2657 Column_2658 Column_2659 Column_2660 Column_2661 Column_2662 Column_2663 Column_2664 Column_2665 Column_2666 Column_2667 Column_2668 Column_2669 Column_2670 Column_2671 Column_2672 Column_2673 Column_2674 Column_2675 Column_2676 Column_2677 Column_2678 Column_2679 Column_2680 Column_2681 Column_2682 Column_2683 Column_2684 Column_2685 Column_2686 Column_2687 Column_2688 Column_2689 Column_2690 Column_2691 Column_2692 Column_2693 Column_2694 Column_2695 Column_2696 Column_2697 Column_2698 Column_2699 Column_2700 Column_2701 Column_2702 Column_2703 Column_2704 Column_2705 Column_2706 Column_2707 Column_2708 Column_2709 Column_2710 Column_2711 Column_2712 Column_2713 Column_2714 Column_2715 Column_2716 Column_2717 Column_2718 Column_2719 Column_2720 Column_2721 Column_2722 Column_2723 Column_2724 Column_2725 Column_2726 Column_2727 Column_2728 Column_2729 Column_2730 Column_2731 Column_2732 Column_2733 Column_2734 Column_2735 Column_2736 Column_2737 Column_2738 Column_2739 Column_2740 Column_2741 Column_2742 Column_2743 Column_2744 Column_2745 Column_2746 Column_2747 Column_2748 Column_2749 Column_2750 Column_2751 Column_2752 Column_2753 Column_2754 Column_2755 Column_2756 Column_2757 Column_2758 Column_2759 Column_2760 Column_2761 Column_2762 Column_2763 Column_2764 Column_2765 Column_2766 Column_2767 Column_2768 Column_2769 Column_2770 Column_2771 Column_2772 Column_2773 Column_2774 Column_2775 Column_2776 Column_2777 Column_2778 Column_2779 Column_2780 Column_2781 Column_2782 Column_2783 Column_2784 Column_2785 Column_2786 Column_2787 Column_2788 Column_2789 Column_2790 Column_2791 Column_2792 Column_2793 Column_2794 Column_2795 Column_2796 Column_2797 Column_2798 Column_2799 Column_2800 Column_2801 Column_2802 Column_2803 Column_2804 Column_2805 Column_2806 Column_2807 Column_2808 Column_2809 Column_2810 Column_2811 Column_2812 Column_2813 Column_2814 Column_2815 Column_2816 Column_2817 Column_2818 Column_2819 Column_2820 Column_2821 Column_2822 Column_2823 Column_2824 Column_2825 Column_2826 Column_2827 Column_2828 Column_2829 Column_2830 Column_2831 Column_2832 Column_2833 Column_2834 Column_2835 Column_2836 Column_2837 Column_2838 Column_2839 Column_2840 Column_2841 Column_2842 Column_2843 Column_2844 Column_2845 Column_2846 Column_2847 Column_2848 Column_2849 Column_2850 Column_2851 Column_2852 Column_2853 Column_2854 Column_2855 Column_2856 Column_2857 Column_2858 Column_2859 Column_2860 Column_2861 Column_2862 Column_2863 Column_2864 Column_2865 Column_2866 Column_2867 Column_2868 Column_2869 Column_2870 Column_2871 Column_2872 Column_2873 Column_2874 Column_2875 Column_2876 Column_2877 Column_2878 Column_2879 Column_2880 Column_2881 Column_2882 Column_2883 Column_2884 Column_2885 Column_2886 Column_2887 Column_2888 Column_2889 Column_2890 Column_2891 Column_2892 Column_2893 Column_2894 Column_2895 Column_2896 Column_2897 Column_2898 Column_2899 Column_2900 Column_2901 Column_2902 Column_2903 Column_2904 Column_2905 Column_2906 Column_2907 Column_2908 Column_2909 Column_2910 Column_2911 Column_2912 Column_2913 Column_2914 Column_2915 Column_2916 Column_2917 Column_2918 Column_2919 Column_2920 Column_2921 Column_2922 Column_2923 Column_2924 Column_2925 Column_2926 Column_2927 Column_2928 Column_2929 Column_2930 Column_2931 Column_2932 Column_2933 Column_2934 Column_2935 Column_2936 Column_2937 Column_2938 Column_2939 Column_2940 Column_2941 Column_2942 Column_2943 Column_2944 Column_2945 Column_2946 Column_2947 Column_2948 Column_2949 Column_2950 Column_2951 Column_2952 Column_2953 Column_2954 Column_2955 Column_2956 Column_2957 Column_2958 Column_2959 Column_2960 Column_2961 Column_2962 Column_2963 Column_2964 Column_2965 Column_2966 Column_2967 Column_2968 Column_2969 Column_2970 Column_2971 Column_2972 Column_2973 Column_2974 Column_2975 Column_2976 Column_2977 Column_2978 Column_2979 Column_2980 Column_2981 Column_2982 Column_2983 Column_2984 Column_2985 Column_2986 Column_2987 Column_2988 Column_2989 Column_2990 Column_2991 Column_2992 Column_2993 Column_2994 Column_2995 Column_2996 Column_2997 Column_2998 Column_2999 Column_3000 Column_3001 Column_3002 Column_3003 Column_3004 Column_3005 Column_3006 Column_3007 Column_3008 Column_3009 Column_3010 Column_3011 Column_3012 Column_3013 Column_3014 Column_3015 Column_3016 Column_3017 Column_3018 Column_3019 Column_3020 Column_3021 Column_3022 Column_3023 Column_3024 Column_3025 Column_3026 Column_3027 Column_3028 Column_3029 Column_3030 Column_3031 Column_3032 Column_3033 Column_3034 Column_3035 Column_3036 Column_3037 Column_3038 Column_3039 Column_3040 Column_3041 Column_3042 Column_3043 Column_3044 Column_3045 Column_3046 Column_3047 Column_3048 Column_3049 Column_3050 Column_3051 Column_3052 Column_3053 Column_3054 Column_3055 Column_3056 Column_3057 Column_3058 Column_3059 Column_3060 Column_3061 Column_3062 Column_3063 Column_3064 Column_3065 Column_3066 Column_3067 Column_3068 Column_3069 Column_3070 Column_3071 Column_3072 Column_3073 Column_3074 Column_3075 Column_3076 Column_3077 Column_3078 Column_3079 Column_3080 Column_3081 Column_3082 Column_3083 Column_3084 Column_3085 Column_3086 Column_3087 Column_3088 Column_3089 Column_3090 Column_3091 Column_3092 Column_3093 Column_3094 Column_3095 Column_3096 Column_3097 Column_3098 Column_3099 Column_3100 Column_3101 Column_3102 Column_3103 Column_3104 Column_3105 Column_3106 Column_3107 Column_3108 Column_3109 Column_3110 Column_3111 Column_3112 Column_3113 Column_3114 Column_3115 Column_3116 Column_3117 Column_3118 Column_3119 Column_3120 Column_3121 Column_3122 Column_3123 Column_3124 Column_3125 Column_3126 Column_3127 Column_3128 Column_3129 Column_3130 Column_3131 Column_3132 Column_3133 Column_3134 Column_3135 Column_3136 Column_3137 Column_3138 Column_3139 Column_3140 Column_3141 Column_3142 Column_3143 Column_3144 Column_3145 Column_3146 Column_3147 Column_3148 Column_3149 Column_3150 Column_3151 Column_3152 Column_3153 Column_3154 Column_3155 Column_3156 Column_3157 Column_3158 Column_3159 Column_3160 Column_3161 Column_3162 Column_3163 Column_3164 Column_3165 Column_3166 Column_3167 Column_3168 Column_3169 Column_3170 Column_3171 Column_3172 Column_3173 Column_3174 Column_3175 Column_3176 Column_3177 Column_3178 Column_3179 Column_3180 Column_3181 Column_3182 Column_3183 Column_3184 Column_3185 Column_3186 Column_3187 Column_3188 Column_3189 Column_3190 Column_3191 Column_3192 Column_3193 Column_3194 Column_3195 Column_3196 Column_3197 Column_3198 Column_3199 Column_3200 Column_3201 Column_3202 Column_3203 Column_3204 Column_3205 Column_3206 Column_3207 Column_3208 Column_3209 Column_3210 Column_3211 Column_3212 Column_3213 Column_3214 Column_3215 Column_3216 Column_3217 Column_3218 Column_3219 Column_3220 Column_3221 Column_3222 Column_3223 Column_3224 Column_3225 Column_3226 Column_3227 Column_3228 Column_3229 Column_3230 Column_3231 Column_3232 Column_3233 Column_3234 Column_3235 Column_3236 Column_3237 Column_3238 Column_3239 Column_3240 Column_3241 Column_3242 Column_3243 Column_3244 Column_3245 Column_3246 Column_3247 Column_3248 Column_3249 Column_3250 Column_3251 Column_3252 Column_3253 Column_3254 Column_3255 Column_3256 Column_3257 Column_3258 Column_3259 Column_3260 Column_3261 Column_3262 Column_3263 Column_3264 Column_3265 Column_3266 Column_3267 Column_3268 Column_3269 Column_3270 Column_3271 Column_3272 Column_3273 Column_3274 Column_3275 Column_3276 Column_3277 Column_3278 Column_3279 Column_3280 Column_3281 Column_3282 Column_3283 Column_3284 Column_3285 Column_3286 Column_3287 Column_3288 Column_3289 Column_3290 Column_3291 Column_3292 Column_3293 Column_3294 Column_3295 Column_3296 Column_3297 Column_3298 Column_3299 Column_3300 Column_3301 Column_3302 Column_3303 Column_3304 Column_3305 Column_3306 Column_3307 Column_3308 Column_3309 Column_3310 Column_3311 Column_3312 Column_3313 Column_3314 Column_3315 Column_3316 Column_3317 Column_3318 Column_3319 Column_3320 Column_3321 Column_3322 Column_3323 Column_3324 Column_3325 Column_3326 Column_3327 Column_3328 Column_3329 Column_3330 Column_3331 Column_3332 Column_3333 Column_3334 Column_3335 Column_3336 Column_3337 Column_3338 Column_3339 Column_3340 Column_3341 Column_3342 Column_3343 Column_3344 Column_3345 Column_3346 Column_3347 Column_3348 Column_3349 Column_3350 Column_3351 Column_3352 Column_3353 Column_3354 Column_3355 Column_3356 Column_3357 Column_3358 Column_3359 Column_3360 Column_3361 Column_3362 Column_3363 Column_3364 Column_3365 Column_3366 Column_3367 Column_3368 Column_3369 Column_3370 Column_3371 Column_3372 Column_3373 Column_3374 Column_3375 Column_3376 Column_3377 Column_3378 Column_3379 Column_3380 Column_3381 Column_3382 Column_3383 Column_3384 Column_3385 Column_3386 Column_3387 Column_3388 Column_3389 Column_3390 Column_3391 Column_3392 Column_3393 Column_3394 Column_3395 Column_3396 Column_3397 Column_3398 Column_3399 Column_3400 Column_3401 Column_3402 Column_3403 Column_3404 Column_3405 Column_3406 Column_3407 Column_3408 Column_3409 Column_3410 Column_3411 Column_3412 Column_3413 Column_3414 Column_3415 Column_3416 Column_3417 Column_3418 Column_3419 Column_3420 Column_3421 Column_3422 Column_3423 Column_3424 Column_3425 Column_3426 Column_3427 Column_3428 Column_3429 Column_3430 Column_3431 Column_3432 Column_3433 Column_3434 Column_3435 Column_3436 Column_3437 Column_3438 Column_3439 Column_3440 Column_3441 Column_3442 Column_3443 Column_3444 Column_3445 Column_3446 Column_3447 Column_3448 Column_3449 Column_3450 Column_3451 Column_3452 Column_3453 Column_3454 Column_3455 Column_3456 Column_3457 Column_3458 Column_3459 Column_3460 Column_3461 Column_3462 Column_3463 Column_3464 Column_3465 Column_3466 Column_3467 Column_3468 Column_3469 Column_3470 Column_3471 Column_3472 Column_3473 Column_3474 Column_3475 Column_3476 Column_3477 Column_3478 Column_3479 Column_3480 Column_3481 Column_3482 Column_3483 Column_3484 Column_3485 Column_3486 Column_3487 Column_3488 Column_3489 Column_3490 Column_3491 Column_3492 Column_3493 Column_3494 Column_3495 Column_3496 Column_3497 Column_3498 Column_3499 Column_3500 Column_3501 Column_3502 Column_3503 Column_3504 Column_3505 Column_3506 Column_3507 Column_3508 Column_3509 Column_3510 Column_3511 Column_3512 Column_3513 Column_3514 Column_3515 Column_3516 Column_3517 Column_3518 Column_3519 Column_3520 Column_3521 Column_3522 Column_3523 Column_3524 Column_3525 Column_3526 Column_3527 Column_3528 Column_3529 Column_3530 Column_3531 Column_3532 Column_3533 Column_3534 Column_3535 Column_3536 Column_3537 Column_3538 Column_3539 Column_3540 Column_3541 Column_3542 Column_3543 Column_3544 Column_3545 Column_3546 Column_3547 Column_3548 Column_3549 Column_3550 Column_3551 Column_3552 Column_3553 Column_3554 Column_3555 Column_3556 Column_3557 Column_3558 Column_3559 Column_3560 Column_3561 Column_3562 Column_3563 Column_3564 Column_3565 Column_3566 Column_3567 Column_3568 Column_3569 Column_3570 Column_3571 Column_3572 Column_3573 Column_3574 Column_3575 Column_3576 Column_3577 Column_3578 Column_3579 Column_3580 Column_3581 Column_3582 Column_3583 Column_3584 Column_3585 Column_3586 Column_3587 Column_3588 Column_3589 Column_3590 Column_3591 Column_3592 Column_3593 Column_3594 Column_3595 Column_3596 Column_3597 Column_3598 Column_3599 Column_3600 Column_3601 Column_3602 Column_3603 Column_3604 Column_3605 Column_3606 Column_3607 Column_3608 Column_3609 Column_3610 Column_3611 Column_3612 Column_3613 Column_3614 Column_3615 Column_3616 Column_3617 Column_3618 Column_3619 Column_3620 Column_3621 Column_3622 Column_3623 Column_3624 Column_3625 Column_3626 Column_3627 Column_3628 Column_3629 Column_3630 Column_3631 Column_3632 Column_3633 Column_3634 Column_3635 Column_3636 Column_3637 Column_3638 Column_3639 Column_3640 Column_3641 Column_3642 Column_3643 Column_3644 Column_3645 Column_3646 Column_3647 Column_3648 Column_3649 Column_3650 Column_3651 Column_3652 Column_3653 Column_3654 Column_3655 Column_3656 Column_3657 Column_3658 Column_3659 Column_3660 Column_3661 Column_3662 Column_3663 Column_3664 Column_3665 Column_3666 Column_3667 Column_3668 Column_3669 Column_3670 Column_3671 Column_3672 Column_3673 Column_3674 Column_3675 Column_3676 Column_3677 Column_3678 Column_3679 Column_3680 Column_3681 Column_3682 Column_3683 Column_3684 Column_3685 Column_3686 Column_3687 Column_3688 Column_3689 Column_3690 Column_3691 Column_3692 Column_3693 Column_3694 Column_3695 Column_3696 Column_3697 Column_3698 Column_3699 Column_3700 Column_3701 Column_3702 Column_3703 Column_3704 Column_3705 Column_3706 Column_3707 Column_3708 Column_3709 Column_3710 Column_3711 Column_3712 Column_3713 Column_3714 Column_3715 Column_3716 Column_3717 Column_3718 Column_3719 Column_3720 Column_3721 Column_3722 Column_3723 Column_3724 Column_3725 Column_3726 Column_3727 Column_3728 Column_3729 Column_3730 Column_3731 Column_3732 Column_3733 Column_3734 Column_3735 Column_3736 Column_3737 Column_3738 Column_3739 Column_3740 Column_3741 Column_3742 Column_3743 Column_3744 Column_3745 Column_3746 Column_3747 Column_3748 Column_3749 Column_3750 Column_3751 Column_3752 Column_3753 Column_3754 Column_3755 Column_3756 Column_3757 Column_3758 Column_3759 Column_3760 Column_3761 Column_3762 Column_3763 Column_3764 Column_3765 Column_3766 Column_3767 Column_3768 Column_3769 Column_3770 Column_3771 Column_3772 Column_3773 Column_3774 Column_3775 Column_3776 Column_3777 Column_3778 Column_3779 Column_3780 Column_3781 Column_3782 Column_3783 Column_3784 Column_3785 Column_3786 Column_3787 Column_3788 Column_3789 Column_3790 Column_3791 Column_3792 Column_3793 Column_3794 Column_3795 Column_3796 Column_3797 Column_3798 Column_3799 Column_3800 Column_3801 Column_3802 Column_3803 Column_3804 Column_3805 Column_3806 Column_3807 Column_3808 Column_3809 Column_3810 Column_3811 Column_3812 Column_3813 Column_3814 Column_3815 Column_3816 Column_3817 Column_3818 Column_3819 Column_3820 Column_3821 Column_3822 Column_3823 Column_3824 Column_3825 Column_3826 Column_3827 Column_3828 Column_3829 Column_3830 Column_3831 Column_3832 Column_3833 Column_3834 Column_3835 Column_3836 Column_3837 Column_3838 Column_3839 Column_3840 Column_3841 Column_3842 Column_3843 Column_3844 Column_3845 Column_3846 Column_3847 Column_3848 Column_3849 Column_3850 Column_3851 Column_3852 Column_3853 Column_3854 Column_3855 Column_3856 Column_3857 Column_3858 Column_3859 Column_3860 Column_3861 Column_3862 Column_3863 Column_3864 Column_3865 Column_3866 Column_3867 Column_3868 Column_3869 Column_3870 Column_3871 Column_3872 Column_3873 Column_3874 Column_3875 Column_3876 Column_3877 Column_3878 Column_3879 Column_3880 Column_3881 Column_3882 Column_3883 Column_3884 Column_3885 Column_3886 Column_3887 Column_3888 Column_3889 Column_3890 Column_3891 Column_3892 Column_3893 Column_3894 Column_3895 Column_3896 Column_3897 Column_3898 Column_3899 Column_3900 Column_3901 Column_3902 Column_3903 Column_3904 Column_3905 Column_3906 Column_3907 Column_3908 Column_3909 Column_3910 Column_3911 Column_3912 Column_3913 Column_3914 Column_3915 Column_3916 Column_3917 Column_3918 Column_3919 Column_3920 Column_3921 Column_3922 Column_3923 Column_3924 Column_3925 Column_3926 Column_3927 Column_3928 Column_3929 Column_3930 Column_3931 Column_3932 Column_3933 Column_3934 Column_3935 Column_3936 Column_3937 Column_3938 Column_3939 Column_3940 Column_3941 Column_3942 Column_3943 Column_3944 Column_3945 Column_3946 Column_3947 Column_3948 Column_3949 Column_3950 Column_3951 Column_3952 Column_3953 Column_3954 Column_3955 Column_3956 Column_3957 Column_3958 Column_3959 Column_3960 Column_3961 Column_3962 Column_3963 Column_3964 Column_3965 Column_3966 Column_3967 Column_3968 Column_3969 Column_3970 Column_3971 Column_3972 Column_3973 Column_3974 Column_3975 Column_3976 Column_3977 Column_3978 Column_3979 Column_3980 Column_3981 Column_3982 Column_3983 Column_3984 Column_3985 Column_3986 Column_3987 Column_3988 Column_3989 Column_3990 Column_3991 Column_3992 Column_3993 Column_3994 Column_3995 Column_3996 Column_3997 Column_3998 Column_3999 Column_4000 Column_4001 Column_4002 Column_4003 Column_4004 Column_4005 Column_4006 Column_4007 Column_4008 Column_4009 Column_4010 Column_4011 Column_4012 Column_4013 Column_4014 Column_4015 Column_4016 Column_4017 Column_4018 Column_4019 Column_4020 Column_4021 Column_4022 Column_4023 Column_4024 Column_4025 Column_4026 Column_4027 Column_4028 Column_4029 Column_4030 Column_4031 Column_4032 Column_4033 Column_4034 Column_4035 Column_4036 Column_4037 Column_4038 Column_4039 Column_4040 Column_4041 Column_4042 Column_4043 Column_4044 Column_4045 Column_4046 Column_4047 Column_4048 Column_4049 Column_4050 Column_4051 Column_4052 Column_4053 Column_4054 Column_4055 Column_4056 Column_4057 Column_4058 Column_4059 Column_4060 Column_4061 Column_4062 Column_4063 Column_4064 Column_4065 Column_4066 Column_4067 Column_4068 Column_4069 Column_4070 Column_4071 Column_4072 Column_4073 Column_4074 Column_4075 Column_4076 Column_4077 Column_4078 Column_4079 Column_4080 Column_4081 Column_4082 Column_4083 Column_4084 Column_4085 Column_4086 Column_4087 Column_4088 Column_4089 Column_4090 Column_4091 Column_4092 Column_4093 Column_4094 Column_4095 Column_4096 Column_4097 Column_4098 Column_4099 Column_4100 Column_4101 Column_4102 Column_4103 Column_4104 Column_4105 Column_4106 Column_4107 Column_4108 Column_4109 Column_4110 Column_4111 Column_4112 Column_4113 Column_4114 Column_4115 Column_4116 Column_4117 Column_4118 Column_4119 Column_4120 Column_4121 Column_4122 Column_4123 Column_4124 Column_4125 Column_4126 Column_4127 Column_4128 Column_4129 Column_4130 Column_4131 Column_4132 Column_4133 Column_4134 Column_4135 Column_4136 Column_4137 Column_4138 Column_4139 Column_4140 Column_4141 Column_4142 Column_4143 Column_4144 Column_4145 Column_4146 Column_4147 Column_4148 Column_4149 Column_4150 Column_4151 Column_4152 Column_4153 Column_4154 Column_4155 Column_4156 Column_4157 Column_4158 Column_4159 Column_4160 Column_4161 Column_4162 Column_4163 Column_4164 Column_4165 Column_4166 Column_4167 Column_4168 Column_4169 Column_4170 Column_4171 Column_4172 Column_4173 Column_4174 Column_4175 Column_4176 Column_4177 Column_4178 Column_4179 Column_4180 Column_4181 Column_4182 Column_4183 Column_4184 Column_4185 Column_4186 Column_4187 Column_4188 Column_4189 Column_4190 Column_4191 Column_4192 Column_4193 Column_4194 Column_4195 Column_4196 Column_4197 Column_4198 Column_4199 Column_4200 Column_4201 Column_4202 Column_4203 Column_4204 Column_4205 Column_4206 Column_4207 Column_4208 Column_4209 Column_4210 Column_4211 Column_4212 Column_4213 Column_4214 Column_4215 Column_4216 Column_4217 Column_4218 Column_4219 Column_4220 Column_4221 Column_4222 Column_4223 Column_4224 Column_4225 Column_4226 Column_4227 Column_4228 Column_4229 Column_4230 Column_4231 Column_4232 Column_4233 Column_4234 Column_4235 Column_4236 Column_4237 Column_4238 Column_4239 Column_4240 Column_4241 Column_4242 Column_4243 Column_4244 Column_4245 Column_4246 Column_4247 Column_4248 Column_4249 Column_4250 Column_4251 Column_4252 Column_4253 Column_4254 Column_4255 Column_4256 Column_4257 Column_4258 Column_4259 Column_4260 Column_4261 Column_4262 Column_4263 Column_4264 Column_4265 Column_4266 Column_4267 Column_4268 Column_4269 Column_4270 Column_4271 Column_4272 Column_4273 Column_4274 Column_4275 Column_4276 Column_4277 Column_4278 Column_4279 Column_4280 Column_4281 Column_4282 Column_4283 Column_4284 Column_4285 Column_4286 Column_4287 Column_4288 Column_4289 Column_4290 Column_4291 Column_4292 Column_4293 Column_4294 Column_4295 Column_4296 Column_4297 Column_4298 Column_4299 Column_4300 Column_4301 Column_4302 Column_4303 Column_4304 Column_4305 Column_4306 Column_4307 Column_4308 Column_4309 Column_4310 Column_4311 Column_4312 Column_4313 Column_4314 Column_4315 Column_4316 Column_4317 Column_4318 Column_4319 Column_4320 Column_4321 Column_4322 Column_4323 Column_4324 Column_4325 Column_4326 Column_4327 Column_4328 Column_4329 Column_4330 Column_4331 Column_4332 Column_4333 Column_4334 Column_4335 Column_4336 Column_4337 Column_4338 Column_4339 Column_4340 Column_4341 Column_4342 Column_4343 Column_4344 Column_4345 Column_4346 Column_4347 Column_4348 Column_4349 Column_4350 Column_4351 Column_4352 Column_4353 Column_4354 Column_4355 Column_4356 Column_4357 Column_4358 Column_4359 Column_4360 Column_4361 Column_4362 Column_4363 Column_4364 Column_4365 Column_4366 Column_4367 Column_4368 Column_4369 Column_4370 Column_4371 Column_4372 Column_4373 Column_4374 Column_4375 Column_4376 Column_4377 Column_4378 Column_4379 Column_4380 Column_4381 Column_4382 Column_4383 Column_4384 Column_4385 Column_4386 Column_4387 Column_4388 Column_4389 Column_4390 Column_4391 Column_4392 Column_4393 Column_4394 Column_4395 Column_4396 Column_4397 Column_4398 Column_4399 Column_4400 Column_4401 Column_4402 Column_4403 Column_4404 Column_4405 Column_4406 Column_4407 Column_4408 Column_4409 Column_4410 Column_4411 Column_4412 Column_4413 Column_4414 Column_4415 Column_4416 Column_4417 Column_4418 Column_4419 Column_4420 Column_4421 Column_4422 Column_4423 Column_4424 Column_4425 Column_4426 Column_4427 Column_4428 Column_4429 Column_4430 Column_4431 Column_4432 Column_4433 Column_4434 Column_4435 Column_4436 Column_4437 Column_4438 Column_4439 Column_4440 Column_4441 Column_4442 Column_4443 Column_4444 Column_4445 Column_4446 Column_4447 Column_4448 Column_4449 Column_4450 Column_4451 Column_4452 Column_4453 Column_4454 Column_4455 Column_4456 Column_4457 Column_4458 Column_4459 Column_4460 Column_4461 Column_4462 Column_4463 Column_4464 Column_4465 Column_4466 Column_4467 Column_4468 Column_4469 Column_4470 Column_4471 Column_4472 Column_4473 Column_4474 Column_4475 Column_4476 Column_4477 Column_4478 Column_4479 Column_4480 Column_4481 Column_4482 Column_4483 Column_4484 Column_4485 Column_4486 Column_4487 Column_4488 Column_4489 Column_4490 Column_4491 Column_4492 Column_4493 Column_4494 Column_4495 Column_4496 Column_4497 Column_4498 Column_4499 Column_4500 Column_4501 Column_4502 Column_4503 Column_4504 Column_4505 Column_4506 Column_4507 Column_4508 Column_4509 Column_4510 Column_4511 Column_4512 Column_4513 Column_4514 Column_4515 Column_4516 Column_4517 Column_4518 Column_4519 Column_4520 Column_4521 Column_4522 Column_4523 Column_4524 Column_4525 Column_4526 Column_4527 Column_4528 Column_4529 Column_4530 Column_4531 Column_4532 Column_4533 Column_4534 Column_4535 Column_4536 Column_4537 Column_4538 Column_4539 Column_4540 Column_4541 Column_4542 Column_4543 Column_4544 Column_4545 Column_4546 Column_4547 Column_4548 Column_4549 Column_4550 Column_4551 Column_4552 Column_4553 Column_4554 Column_4555 Column_4556 Column_4557 Column_4558 Column_4559 Column_4560 Column_4561 Column_4562 Column_4563 Column_4564 Column_4565 Column_4566 Column_4567 Column_4568 Column_4569 Column_4570 Column_4571 Column_4572 Column_4573 Column_4574 Column_4575 Column_4576 Column_4577 Column_4578 Column_4579 Column_4580 Column_4581 Column_4582 Column_4583 Column_4584 Column_4585 Column_4586 Column_4587 Column_4588 Column_4589 Column_4590 Column_4591 Column_4592 Column_4593 Column_4594 Column_4595 Column_4596 Column_4597 Column_4598 Column_4599 Column_4600 Column_4601 Column_4602 Column_4603 Column_4604 Column_4605 Column_4606 Column_4607 Column_4608 Column_4609 Column_4610 Column_4611 Column_4612 Column_4613 Column_4614 Column_4615 Column_4616 Column_4617 Column_4618 Column_4619 Column_4620 Column_4621 Column_4622 Column_4623 Column_4624 Column_4625 Column_4626 Column_4627 Column_4628 Column_4629 Column_4630 Column_4631 Column_4632 Column_4633 Column_4634 Column_4635 Column_4636 Column_4637 Column_4638 Column_4639 Column_4640 Column_4641 Column_4642 Column_4643 Column_4644 Column_4645 Column_4646 Column_4647 Column_4648 Column_4649 Column_4650 Column_4651 Column_4652 Column_4653 Column_4654 Column_4655 Column_4656 Column_4657 Column_4658 Column_4659 Column_4660 Column_4661 Column_4662 Column_4663 Column_4664 Column_4665 Column_4666 Column_4667 Column_4668 Column_4669 Column_4670 Column_4671 Column_4672 Column_4673 Column_4674 Column_4675 Column_4676 Column_4677 Column_4678 Column_4679 Column_4680 Column_4681 Column_4682 Column_4683 Column_4684 Column_4685 Column_4686 Column_4687 Column_4688 Column_4689 Column_4690 Column_4691 Column_4692 Column_4693 Column_4694 Column_4695 Column_4696 Column_4697 Column_4698 Column_4699 Column_4700 Column_4701 Column_4702 Column_4703 Column_4704 Column_4705 Column_4706 Column_4707 Column_4708 Column_4709 Column_4710 Column_4711 Column_4712 Column_4713 Column_4714 Column_4715 Column_4716 Column_4717 Column_4718 Column_4719 Column_4720 Column_4721 Column_4722 Column_4723 Column_4724 Column_4725 Column_4726 Column_4727 Column_4728 Column_4729 Column_4730 Column_4731 Column_4732 Column_4733 Column_4734 Column_4735 Column_4736 Column_4737 Column_4738 Column_4739 Column_4740 Column_4741 Column_4742 Column_4743 Column_4744 Column_4745 Column_4746 Column_4747 Column_4748 Column_4749 Column_4750 Column_4751 Column_4752 Column_4753 Column_4754 Column_4755 Column_4756 Column_4757 Column_4758 Column_4759 Column_4760 Column_4761 Column_4762 Column_4763 Column_4764 Column_4765 Column_4766 Column_4767 Column_4768 Column_4769 Column_4770 Column_4771 Column_4772 Column_4773 Column_4774 Column_4775 Column_4776 Column_4777 Column_4778 Column_4779 Column_4780 Column_4781 Column_4782 Column_4783 Column_4784 Column_4785 Column_4786 Column_4787 Column_4788 Column_4789 Column_4790 Column_4791 Column_4792 Column_4793 Column_4794 Column_4795 Column_4796 Column_4797 Column_4798 Column_4799 Column_4800 Column_4801 Column_4802 Column_4803 Column_4804 Column_4805 Column_4806 Column_4807 Column_4808 Column_4809 Column_4810 Column_4811 Column_4812 Column_4813 Column_4814 Column_4815 Column_4816 Column_4817 Column_4818 Column_4819 Column_4820 Column_4821 Column_4822 Column_4823 Column_4824 Column_4825 Column_4826 Column_4827 Column_4828 Column_4829 Column_4830 Column_4831 Column_4832 Column_4833 Column_4834 Column_4835 Column_4836 Column_4837 Column_4838 Column_4839 Column_4840 Column_4841 Column_4842 Column_4843 Column_4844 Column_4845 Column_4846 Column_4847 Column_4848 Column_4849 Column_4850 Column_4851 Column_4852 Column_4853 Column_4854 Column_4855 Column_4856 Column_4857 Column_4858 Column_4859 Column_4860 Column_4861 Column_4862 Column_4863 Column_4864 Column_4865 Column_4866 Column_4867 Column_4868 Column_4869 Column_4870 Column_4871 Column_4872 Column_4873 Column_4874 Column_4875 Column_4876 Column_4877 Column_4878 Column_4879 Column_4880 Column_4881 Column_4882 Column_4883 Column_4884 Column_4885 Column_4886 Column_4887 Column_4888 Column_4889 Column_4890 Column_4891 Column_4892 Column_4893 Column_4894 Column_4895 Column_4896 Column_4897 Column_4898 Column_4899 Column_4900 Column_4901 Column_4902 Column_4903 Column_4904 Column_4905 Column_4906 Column_4907 Column_4908 Column_4909 Column_4910 Column_4911 Column_4912 Column_4913 Column_4914 Column_4915 Column_4916 Column_4917 Column_4918 Column_4919 Column_4920 Column_4921 Column_4922 Column_4923 Column_4924 Column_4925 Column_4926 Column_4927 Column_4928 Column_4929 Column_4930 Column_4931 Column_4932 Column_4933 Column_4934 Column_4935 Column_4936 Column_4937 Column_4938 Column_4939 Column_4940 Column_4941 Column_4942 Column_4943 Column_4944 Column_4945 Column_4946 Column_4947 Column_4948 Column_4949 Column_4950 Column_4951 Column_4952 Column_4953 Column_4954 Column_4955 Column_4956 Column_4957 Column_4958 Column_4959 Column_4960 Column_4961 Column_4962 Column_4963 Column_4964 Column_4965 Column_4966 Column_4967 Column_4968 Column_4969 Column_4970 Column_4971 Column_4972 Column_4973 Column_4974 Column_4975 Column_4976 Column_4977 Column_4978 Column_4979 Column_4980 Column_4981 Column_4982 Column_4983 Column_4984 Column_4985 Column_4986 Column_4987 Column_4988 Column_4989 Column_4990 Column_4991 Column_4992 Column_4993 Column_4994 Column_4995 Column_4996 Column_4997 Column_4998 Column_4999
feature_infos=[0:0.86704597914341219] [0:0.83798322681899984] [0:0.65764756490388376] [0:0.79773987063572116] [0:0.86009142163727015] [0:0.79884231878993761] [0:0.54229696542632666] [0:0.60557541916168145] [0:0.91659213376013848] [0:0.75141633360344151] [0:0.55818883865532731] [0:0.70967337691806187] [0:0.7851602203683602] [0:0.53063494701617564] [0:0.56852591021150367] [0:0.50041980206748882] [0:0.48892666107660487] [0:0.67650979370548825] [0:0.6460009038423975] [0:0.77844383216965118] [0:0.66913213846936881] [0:0.53147676071812178] [0:0.50228055190411391] [0:0.78944334289636842] [0:0.54413143201452285] [0:0.58010429693984955] [0:0.66651045195208292] [0:0.42187858384136934] [0:0.73942454203760677] [0:0.70976349419166418] [0:0.72600584031522886] [0:0.57673205410762252] [0:0.82975620500804059] [0:0.67963178254727818] [0:0.71597922205465092] [0:0.69677268843123652] [0:0.63129600786548823] [0:0.75824377804675425] [0:0.78560745011371702] [0:0.80917788708504512] [0:0.61663180022587072] [0:0.66638810082268296] [0:0.42849432186528164] [0:0.82375112391663363] [0:0.49921552109935524] [0:0.69435924895685186] [0:0.64406295161960936] [0:0.57375990026885249] [0:0.83590407506059428] [0:0.86059083930740654] [0:0.65045961234975946] [0:0.78690211913101327] [0:0.58264441476520479] [0:0.52431743390356267] [0:0.62026678138685076] [0:0.51845418874651383] [0:0.76833257861937732] [0:0.64349367636197752] [0:0.52866426215985096] [0:0.85250464975303764] [0:0.71566566579245317] [0:0.62930576207416966] [0:0.65382143424294126] [0:0.73504816657613059] [0:0.83794636019673352] [0:0.3466163696984616] [0:0.68720451346259859] [0:0.73429912142333431] [0:1] [0:0.82498278362119071] [0:0.80372827349408915] [0:0.94788561492286183] [0:0.58827094620761455] [0:0.43627046063122066] [0:0.50202204012366214] [0:0.39561655003458762] [0:0.79829831122150241] [0:0.93959513516502557] [0:0.60526965862863091] [0:0.7354467138015468] [0:0.59215791785911009] [0:0.66642009297735672] [0:0.66326722830226281] [0:0.64484618679900918] [0:0.54043201155629039] [0:0.71352030681854373] [0:0.57473275015589631] [0:0.69321735686177255] [0:0.84744567653467107] [0:0.7634929926404932] [0:0.59758826163476741] [0:0.73077231677827326] [0:0.47591765959347548] [0:0.44399298142211602] [0:0.53011397291063089] [0:0.62684264694777658] [0:0.77708075516457464] [0:0.83701578312238833] [0:0.61165271542894684] [0:0.8052985230089873] [0:0.55210420613821332] [0:0.72065945094701866] [0:0.62185405307173658] [0:0.72875306806694207] [0:0.82945593966747366] [0:0.58569193942186459] [0:0.80627280563243253] [0:0.53612358079432443] [0:0.67876256430193871] [0:0.71079400988132735] [0:0.75170000817753946] [0:1] [0:0.52241504181080012] [0:0.44618600453052831] [0:0.68649297944554255] [0:0.68240176708223566] [0:0.60068183864145175] [0:0.80368052744848695] [0:0.76227179422800806] [0:0.58051597752928896] [0:0.56398143003341106] [0:0.6604669520036266] [0:0.82423225527322685] [0:0.65832048230929985] [0:0.62660027560682496] [0:0.70011767673284042] [0:0.88522803550229212] [0:1] [0:0.83748353433298006] [0:1] [0:0.70285620951921279] [0:0.79207181980856189] [0:0.77291257580872041] [0:0.855368726173519] [0:0.44595731133165273] [0:0.88775988998040822] [0:1] [0:0.7966429846155253] [0:0.36759946077295347] [0:0.84286980118742483] [0:1] [0:0.83717993437648508] [0:0.63094939959100504] [0:0.78396576757681713] [0:0.90531369726124211] [0:0.83830623148513927] [0:0.81108281237751578] [0:0.7634677446419863] [0:1] [0:0.54684490157270593] [0:0.61652431032295985] [0:0.89513788717600684] [0:0.50822028188074264] [0:0.64062424732271006] [0:0.73343995319215249] [0:1] [0:0.81316024216862126] [0:0.72700407041655557] [0:0.46727075491425019] [0:0.77991063131240967] [0:0.98986620783076118] [0:0.64377009690181441] [0:0.74097518560538456] [0:0.74792374686932861] [0:0.52982810741553454] [0:0.70838760059013794] [0:0.83320156373593102] [0:0.62024714506445211] [0:0.77771136610369118] [0:0.69015394618773152] [0:0.70812917479326876] [0:0.79946428671490755] [0:0.81023261726026241] [0:0.964141116478064] [0:0.74650354377106054] [0:0.91310456937203577] [0:0.62921583343916276] [0:0.59596334254305616] [0:0.53988474838545653] [0:0.67454161305146121] [0:0.45705585217245903] [0:0.89028192179753385] [0:0.48666829330335848] [0:0.840875541078559] [0:0.71657800388795623] [0:1] [0:1] [0:0.6951889169480937] [0:0.76721305745464352] [0:0.68810104705190056] [0:1] [0:0.61609197726815845] [0:0.57364498093966509] [0:0.93651773396511095] [0:0.65039292753202615] [0:0.45888712057171738] [0:0.72702629913530425] [0:0.48972210886852163] [0:0.53859554056816406] [0:0.90097582421420042] [0:0.85294173354176206] [0:0.7308830394394894] [0:0.50161376727075846] [0:0.91915501565165625] [0:0.82203273222139794] [0:0.82422942512673936] [0:0.75641758425641525] [0:0.87349504315082105] [0:1] [0:0.83179390293035649] [0:0.46378294961586275] [0:0.48321557305230345] [0:0.7308809897420453] [0:0.7765872129466207] [0:0.54196830306877852] [0:0.89678558906182448] [0:0.71775421211755519] [0:0.75187424313571827] [0:0.86302932410483291] [0:0.82377323131872493] [0:0.49917401593743593] [0:0.8439724089158136] [0:0.72668069863123697] [0:0.53481369498510278] [0:0.82792286020326367] [0:0.55424242819850833] [0:0.69069870196698957] [0:0.78588737500786954] [0:0.87221802880154209] [0:0.72920919837278209] [0:0.57435353992162219] [0:0.71005799239070666] [0:0.6981480939823369] [0:0.80528127525214177] [0:0.71551697875611919] [0:0.57898179166622954] [0:0.42859664543412712] [0:0.6634872463706738] [0:0.50319499513477861] [0:0.7761677628181255] [0:0.56316358376734243] [0:0.58961924253786224] [0:0.47755974514035199] [0:0.58532386926912672] [0:0.58730371183541918] [0:0.76059783321570129] [0:0.82729641716909985] [0:0.80207782636690073] [0:0.90422165713255376] [0:0.82738871361480404] [0:1] [0:0.74357467083543782] [0:0.67195456229593431] [0:0.5143761438637211] [0:0.80371228122778837] [0:0.83697335576250342] [0:0.83169567327701577] [0:0.517851376211936] [0:0.61593277183615813] [0:0.73363054267147709] [0:0.63986118047445084] [0:1] [0:1] [0:0.51889392750524832] [0:0.96316120798002125] [0:0.61547006937948978] [0:0.79284781878108268] [0:0.82453770883049737] [0:0.56001704566339439] [0:0.82819047832763171] [0:0.64812641091177015] [0:0.78473396231776282] [0:0.66965343905795904] [0:0.44376405780873468] [0:0.82689405842344299] [0:1] [0:0.74720684434407658] [0:0.45885962889360576] [0:0.81784282056248359] [0:0.75527890282920163] [0:1] [0:0.49787180784770074] [0:0.64718415289980724] [0:0.6424805674346129] [0:0.6651025101320972] [0:0.62978134493780602] [0:0.50576513508908438] [0:0.72850863968178436] [0:0.61808512007101579] [0:0.40373868444275313] [0:0.61371783223443066] [0:0.66706291878289381] [0:0.48340988763586235] [0:0.86780721830776508] [0:0.782252819094436] [0:0.55832590568041451] [0:0.72545833010588379] [0:0.55076501945767342] [0:0.73339629237378645] [0:0.76301322515813541] [0:0.73217173312094108] [0:0.69826869180063988] [0:0.76453716388813453] [0:0.64601302547651063] [0:0.61713664984400529] [0:0.95560364676705289] [0:0.6207511476686014] [0:0.77344268391239313] [0:0.75540276657270489] [0:0.52436118775035767] [0:0.75487100553485587] [0:0.70570651911812232] [0:0.88858534394431843] [0:0.74264199180209356] [0:0.70178747640343497] [0:0.95016287160338797] [0:0.64106112898588796] [0:0.4771574316665404] [0:0.94223739135842866] [0:0.79173180282023425] [0:1] [0:0.69356473151190645] [0:0.6881729262051921] [0:0.44276325774736913] [0:0.90570938886620045] [0:0.85973732510756962] [0:0.7509446103271914] [0:0.63326465883478478] [0:0.60803459105819146] [0:0.4253137651213012] [0:0.69996773485812602] [0:0.38378962715919746] [0:0.85913425826531298] [0:0.68010356571122466] [0:0.61044809355252316] [0:0.7685211492245303] [0:0.71463172529936969] [0:1] [0:0.73529604518387126] [0:0.65589746353345102] [0:0.66998035102330245] [0:0.75214449392118121] [0:0.5391979044955888] [0:0.7397595759549046] [0:0.64609764075802811] [0:0.63122521956193933] [0:0.95491003640642036] [0:0.72965768686826804] [0:0.58906168798162617] [0:0.58665573002324334] [0:0.70746565797985494] [0:0.55282587946650719] [0:0.76852726682192574] [0:0.38555126174857823] [0:0.51372380045380572] [0:0.94847179511183699] [0:0.52019461892117635] [0:1] [0:0.7153903512559765] [0:0.94472715909751148] [0:0.62992546711729347] [0:0.82727290025039191] [0:0.93257408681461618] [0:0.79575058913726537] [0:0.5617488505814936] [0:0.62639617410217263] [0:1] [0:0.88320031292691048] [0:0.9530555627221019] [0:0.75256395647501295] [0:0.84679424462198105] [0:1] [0:0.69533333660622654] [0:0.87941049888063894] [0:0.90988424851205607] [0:0.72577371991157602] [0:0.51447913809435075] [0:0.92676924419584772] [0:0.83828166522495406] [0:0.91145010902940515] [0:0.49627657103026734] [0:0.79171752793366168] [0:0.6256901178741977] [0:0.81996547947502507] [0:0.82133957963556659] [0:0.59903775913137913] [0:0.50158249258857734] [0:0.61876156625954515] [0:0.76499723122211061] [0:0.85489754759809933] [0:0.85230473293427933] [0:0.78597488169137963] [0:0.79430893841321737] [0:0.68510548288105388] [0:0.73442329701741627] [0:0.60699778248571712] [0:0.68970348575393747] [0:0.89079474494511512] [0:1] [0:0.85983709666661445] [0:0.78226012947405388] [0:0.7761275982284026] [0:0.6891607768038055] [0:0.73529455908369912] [0:0.73654727440834189] [0:0.83649210384158579] [0:1] [0:0.58299683007703684] [0:0.5602527716935759] [0:0.7449504411253447] [0:0.53393771143464241] [0:0.47786517230058684] [0:0.54274820425773374] [0:0.57544269687341398] [0:0.6714163440976052] [0:0.64006170224081071] [0:0.5705838900454222] [0:0.6319596132152101] [0:0.68601115262935974] [0:0.79487353388336546] [0:0.56316347524466825] [0:0.85581230913263628] [0:0.69722368490491027] [0:0.80021986195702544] [0:0.62314632170613371] [0:0.91329296110775493] [0:0.78221057341664924] [0:0.7333092107270669] [0:0.47045629294548885] [0:0.82935234948436809] [0:0.69468931687205837] [0:0.61609434743334879] [0:0.68406941225367046] [0:0.48884898175312558] [0:0.7809803118683829] [0:0.84788245324818778] [0:0.79279241163682557] [0:0.52234045081453984] [0:0.61503537032884625] [0:0.84220852645876787] [0:0.81810173956153309] [0:0.52975739525587218] [0:0.76863478634674154] [0:0.80697904118052399] [0:0.7400050780637154] [0:0.8368764012662715] [0:0.83142541423272454] [0:0.6232604774763888] [0:0.80051150542049221] [0:0.79807335263140866] [0:0.69694683589352724] [0:0.83924501070542024] [0:0.57504218857370204] [0:0.65264971393172633] [0:0.79265117028951504] [0:0.72336610216911079] [0:1] [0:0.73459332186491266] [0:0.91774318878090211] [0:0.66518167355815538] [0:0.80820700646894073] [0:0.76916161310018871] [0:0.8799638831778186] [0:0.75441672103325796] [0:0.60204570058358231] [0:0.53498986422171635] [0:1] [0:0.64166469945887461] [0:0.80423441283712493] [0:0.84606384859598038] [0:0.86193077601381884] [0:0.67413601764990849] [0:0.65951763010312159] [0:0.73892394538020345] [0:0.7308983075660741] [0:0.52704093499175175] [0:0.80906444901619912] [0:0.57743937462193151] [0:0.56204655132941983] [0:0.94867900639462688] [0:0.68181838970761466] [0:1] [0:0.82811242192933421] [0:0.8917987599670899] [0:0.72878742818299558] [0:0.66586181657395271] [0:0.81193931200494063] [0:0.85744991130046067] [0:0.59690092666802008] [0:0.65613440115011146] [0:0.89919478137958175] [0:0.72927638032129505] [0:0.77219956043688087] [0:0.85919723528098013] [0:0.8910116219128148] [0:0.91567855621742311] [0:0.6514314978991983] [0:0.78748742103842784] [0:0.86656886533484412] [0:0.71682683212599252] [0:0.94617509165371816] [0:0.82374704123676268] [0:0.81041218389777492] [0:0.85399548970052885] [0:1] [0:0.85443693927401665] [0:0.88426253753730732] [0:0.84852560612499628] [0:0.51509830336622664] [0:0.78386515031675474] [0:0.74947751002516028] [0:0.89125601289108403] [0:0.91101023640139434] [0:0.84960416138126416] [0:0.82847282731551009] [0:0.71816470756869411] [0:0.85830157760369086] [0:0.70433394790348058] [0:0.83691060703369036] [0:0.61915409876946303] [0:0.53046448744757513] [0:0.85475480937465187] [0:1] [0:0.93654551556282406] [0:0.66735412618260437] [0:0.705642013495692] [0:0.84058973085645061] [0:0.84618246277692499] [0:0.84819563124635178] [0:0.8660298133962574] [0:0.79657754054200647] [0:0.70689284260698604] [0:0.65829071660949057] [0:0.78421535107912244] [0:0.65990759917642627] [0:0.6034911938589016] [0:0.87057679169050273] [0:1] [0:0.89405927356605386] [0:0.52609293683388714] [0:0.71149203921562587] [0:0.60765125303518641] [0:0.84793780470357449] [0:0.8542677442187222] [0:0.77027318429608016] [0:0.9286049725588098] [0:0.74358163659547183] [0:0.86913600961773674] [0:0.75685499307183179] [0:0.51652064040690537] [0:0.48150819074407736] [0:0.84002152700297705] [0:0.99075907875842206] [0:0.90898980021966946] [0:0.96000619020818267] [0:0.51623442895733462] [0:0.69846820510122087] [0:1] [0:0.82206140739051325] [0:0.6918321341887409] [0:1] [0:0.87386867974487958] [0:0.63829546868165277] [0:0.83431959733283134] [0:0.74802487108572979] [0:0.69060302678074514] [0:0.69164213524455442] [0:0.65843954487087775] [0:0.68914468476831858] [0:0.70775209347207368] [0:0.8361497653754083] [0:0.78847391768413855] [0:0.65124936080531537] [0:0.49818296179322513] [0:0.76177622996123839] [0:0.74013581302833142] [0:0.71350525238044782] [0:0.67545118814952509] [0:0.6501914670286556] [0:1] [0:0.64424594185094497] [0:0.7603360177505899] [0:1] [0:0.81925089930370143] [0:0.81801118665977313] [0:0.7858617074592027] [0:0.5489584076510331] [0:0.71893770955202074] [0:0.75513957192357828] [0:0.49706099798715836] [0:0.70709127529335392] [0:0.79140844037514002] [0:0.53978110093516241] [0:0.82812447796172639] [0:0.68604347122471765] [0:0.63960316732751943] [0:0.80683613599310411] [0:0.95941244738765386] [0:0.92229881308242367] [0:0.71327466727666988] [0:0.66942371096969311] [0:0.61333317198181458] [0:0.89277230993893908] [0:0.66313032149319229] [0:0.89357005904558717] [0:0.79335827282120319] [0:0.69405999239562266] [0:0.75786538544193582] [0:0.77175512225281062] [0:0.67019277887330864] [0:0.99007198260031737] [0:0.8518442321128803] [0:0.75422015678471477] [0:0.80644741381645513] [0:0.87046670588058705] [0:0.9695885335156248] [0:0.83202758202717064] [0:0.79092663387639928] [0:0.47227048877711109] [0:0.83687073703571779] [0:0.89479774161341763] [0:0.7945228433339937] [0:0.85286502284675592] [0:0.68235984129765648] [0:1] [0:0.59750192568808547] [0:0.40072292275537646] [0:0.55651982462538629] [0:0.78395768219519313] [0:0.62125503250058978] [0:0.75239735563938592] [0:0.84428153369475112] [0:0.74216351248850998] [0:0.61114142393319559] [0:0.79697490797099679] [0:0.82481645337822729] [0:0.79002641022036446] [0:0.77162199926721531] [0:0.62582695679837375] [0:0.95651619458255965] [0:0.79097877225046209] [0:0.82778170071343748] [0:0.78133782350796488] [0:0.96683126213736781] [0:0.68679402065692641] [0:0.48326508247272876] [0:0.66665955712222436] [0:0.80281817925526455] [0:0.89959709692225942] [0:0.52870334758204707] [0:0.96058120224353061] [0:0.83123915429056272] [0:0.75531059392210442] [0:0.78973332395141549] [0:1] [0:0.68454824820654714] [0:0.64991698807539378] [0:0.85545350678267107] [0:0.66909326212658016] [0:0.58208589252857745] [0:0.49447530370851678] [0:0.60744622751394062] [0:0.77773744468929473] [0:0.70424976598697386] [0:1] [0:0.7766708697622412] [0:1] [0:0.80541833942678265] [0:0.75902272710575647] [0:0.72933282449092118] [0:0.60900352142095637] [0:0.49247167416845455] [0:1] [0:0.76740215049664662] [0:0.56595468184629238] [0:0.85410805476977336] [0:1] [0:0.52741891403011976] [0:1] [0:0.95862558920867547] [0:0.73099540164977206] [0:0.77412519684335046] [0:0.78700056717612832] [0:0.68613790649932671] [0:0.86340331339300991] [0:0.7740529247159309] [0:0.76346115187241814] [0:0.74655832369408126] [0:0.80869464758188303] [0:0.79380610166898458] [0:0.50450905522698308] [0:0.51622464457016548] [0:1] [0:0.88897529887026339] [0:0.56253128652906093] [0:0.55293908783874302] [0:0.8316463341387822] [0:0.82748557890818075] [0:0.74823322155460237] [0:0.63473793111923882] [0:0.7979747753263009] [0:0.46675506586901372] [0:0.89969025027184213] [0:0.56607527699433957] [0:0.8331861973546334] [0:0.60343756582037555] [0:1] [0:0.83503902043328337] [0:0.61287173109617277] [0:0.63931993565297818] [0:0.94240951320348565] [0:0.76055805464501169] [0:0.87369177831274336] [0:0.75178155612037878] [0:0.70665407381624767] [0:0.86585729785821242] [0:1] [0:1] [0:0.79501568100409226] [0:0.59331741303434604] [0:0.80930702359114925] [0:0.67106049377182708] [0:0.77782912903623225] [0:0.7498507411355132] [0:0.86775417375574826] [0:0.69211444106358988] [0:0.90775979224407832] [0:0.84144737708735595] [0:0.9135926075611821] [0:1] [0:0.90478531815357843] [0:0.93899758837206593] [0:0.71004142669703163] [0:1] [0:0.7705395438818835] [0:0.57211377481189374] [0:0.51162008114843516] [0:0.70666495818167852] [0:0.61608799354584853] [0:0.82887960440761144] [0:1] [0:1] [0:0.66184566348664653] [0:0.83192358972946445] [0:0.67698378416275085] [0:0.88576968945645329] [0:0.80768963813958194] [0:0.80098209030224499] [0:0.81687801157606232] [0:0.90400082706794727] [0:0.98260294071741661] [0:0.66507911097061256] [0:0.59735240719835003] [0:0.92869675512018934] [0:0.88371624083317746] [0:0.80778918593249527] [0:0.82901244633138549] [0:0.55144175080395019] [0:0.78182641125475916] [0:0.67865377464081844] [0:0.76938603995348664] [0:0.78377134428342765] [0:0.78530662088441394] [0:0.57710276435122609] [0:0.70614579921598986] [0:0.39858407413123714] [0:0.46296112821907653] [0:0.64514901232219035] [0:0.70833746083900229] [0:0.60202832803168871] [0:0.55904510090044057] [0:0.91836237522123254] [0:0.79559988446882768] [0:0.82808680259575473] [0:0.729221821571856] [0:0.59956462443309133] [0:0.6333186784895618] [0:0.72500493160505075] [0:0.7765583449047464] [0:0.66475075770538805] [0:0.85454879983514964] [0:0.69592196804691808] [0:0.78349304659014607] [0:0.89383638674718047] [0:0.69617162794460474] [0:0.54702914833184457] [0:0.7273115442216963] [0:0.65661721564408493] [0:0.68399748448780606] [0:0.80557333641828655] [0:0.89955655835056736] [0:0.68701874359744763] [0:0.63030954987419441] [0:0.56964279653797367] [0:0.75714523271958656] [0:0.69450161554765988] [0:0.62291227122507697] [0:0.76827054013778728] [0:1] [0:0.88036521764161424] [0:0.81790111804745014] [0:0.52934014131467055] [0:0.64053431187011201] [0:0.65642992104127418] [0:0.63074259924247156] [0:0.75439401793473293] [0:0.69354476180473712] [0:0.78914515106498584] [0:0.78732003614905766] [0:1] [0:1] [0:0.64813615352163223] [0:0.90819307103793645] [0:0.65389888380427263] [0:0.84957452449058524] [0:1] [0:0.79275365040298784] [0:0.69010817278188785] [0:0.72853379455460676] [0:0.7803093410866635] [0:0.69926659456741791] [0:0.62810965470728641] [0:0.58484832899922667] [0:0.6732719182742215] [0:0.76421470799195024] [0:0.91391629543235564] [0:1] [0:0.71314850722487755] [0:0.54192413547882612] [0:0.78941336430801512] [0:0.7375412392143027] [0:1] [0:0.64148658656726498] [0:0.74249244246878054] [0:0.44903297685753563] [0:0.82497008909957381] [0:0.80924279426299095] [0:1] [0:0.74654035651661599] [0:0.71860899503732301] [0:0.65127777264538189] [0:0.4314697167003223] [0:0.91739398301973529] [0:0.64820392599500976] [0:0.57406674686194847] [0:0.75071488486045479] [0:0.79909400682790144] [0:0.74875089681716767] [0:0.77721657112063414] [0:0.75489677767769103] [0:0.61253675452687339] [0:0.60732495565301514] [0:0.67557305644157295] [0:0.53680322065596775] [0:0.70641683716583814] [0:0.71204487162825925] [0:0.86506076563173828] [0:0.64383950048946337] [0:0.62699483041374293] [0:0.71490575780442711] [0:0.61912116948360285] [0:0.56792625623421633] [0:0.88590990907430278] [0:0.50079182554345325] [0:0.69001141276655242] [0:0.76823737327607999] [0:0.8871956279887554] [0:0.54486330604982347] [0:0.67644351470325736] [0:0.50222856577218966] [0:0.57232455779441305] [0:0.93648502840537928] [0:0.79875282989566387] [0:0.71164962017128686] [0:0.68314289768879288] [0:0.58468584569419768] [0:0.80864733136470979] [0:0.73749366630512192] [0:0.51627461426017673] [0:0.57685800895488426] [0:0.72270565998183767] [0:0.78738543532260563] [0:0.53100172848092575] [0:0.50853864158146189] [0:0.59483342177809972] [0:0.72776796827062673] [0:0.54306398320111948] [0:0.8196770435978199] [0:1] [0:0.59143639070142617] [0:0.74409242079637605] [0:0.69531267696903709] [0:0.50995978964112532] [0:0.83955051920758317] [0:0.67173233215947525] [0:0.5361173492310829] [0:0.6032446741760904] [0:0.83375583447427326] [0:0.76018151846286741] [0:0.70229964173975656] [0:0.57382859114286877] [0:0.50586352262296719] [0:0.855202330516039] [0:0.71366135710066347] [0:0.78677932323159094] [0:0.81562403731277289] [0:0.70883143913114022] [0:0.76583797628336181] [0:0.64142541773858786] [0:0.58704007672586966] [0:0.58107127569563766] [0:0.85860932090254083] [0:0.73529262881095991] [0:0.67670092620789823] [0:0.82604000751600937] [0:0.6420074761921164] [0:0.72699019491213612] [0:0.44801274831865384] [0:0.64409098041730095] [0:0.57345999985417129] [0:1] [0:0.71775095480828222] [0:0.76012078606930367] [0:0.82276524627772885] [0:0.54944499305248806] [0:0.54941442038614741] [0:0.45010364281379078] [0:0.75581912822685737] [0:0.52733981467101332] [0:0.61157564274427068] [0:0.62896747045930357] [0:0.58497412619563116] [0:1] [0:0.74389464297331043] [0:0.65367184647239729] [0:0.67554206754331714] [0:0.69716003217733058] [0:0.68769684127311781] [0:0.73637182724037376] [0:0.64985787628687075] [0:0.46659703305009864] [0:0.50806068550875094] [0:0.61578912049411916] [0:0.43582641152763635] [0:0.76658346405249878] [0:0.76046759030423761] [0:0.70163780428422151] [0:0.8008848228194837] [0:0.65909353410161464] [0:0.54832137536013592] [0:0.52349038414404703] [0:0.68971183006579484] [0:0.82589349516086297] [0:0.68269238483404127] [0:0.45217748949091097] [0:0.67701566380823419] [0:0.67104050772374579] [0:0.66832740435499094] [0:0.52496116317442487] [0:0.69814762087848525] [0:0.92282046435502485] [0:0.85238466215146513] [0:0.58701734374973158] [0:1] [0:0.8821242969912344] [0:0.76850374451205661] [0:0.52775506804575201] [0:0.77799269139602778] [0:0.90390405808823138] [0:0.79885677910156738] [0:0.81104609297646335] [0:0.79309333691208506] [0:0.96867764422764446] [0:0.65016778410169596] [0:0.68431616617848268] [0:0.75971425411672944] [0:0.57968198059364373] [0:1] [0:0.70428523414428779] [0:0.7216790800265025] [0:0.92871675092499573] [0:0.68555408911936488] [0:0.58202856308014794] [0:0.67836991781933786] [0:0.6784966584341624] [0:0.80453469610756034] [0:0.7457076329210689] [0:1] [0:0.63361063633957981] [0:0.52254487613223655] [0:1] [0:0.77465330971676827] [0:0.89128551114870047] [0:0.91025643536753575] [0:0.64194100242502516] [0:0.74780273100004246] [0:0.83510452683923275] [0:0.70610295555324709] [0:0.76213188864681847] [0:0.81175513320497961] [0:1] [0:0.76621330725331527] [0:0.8204748419902923] [0:0.62658475689956261] [0:0.71394493428161721] [0:1] [0:0.83684638730176308] [0:0.69150552178783031] [0:0.84434541430405297] [0:0.58836730439690277] [0:0.74082991225389172] [0:0.78360187713554019] [0:0.6133067309626774] [0:0.70634307092693238] [0:0.78662013147738707] [0:0.79140183025413391] [0:1] [0:0.7512863627296007] [0:0.61029593342447808] [0:0.95176609130482825] [0:0.76017551660152716] [0:0.6923418524508973] [0:0.56612122206225379] [0:0.80261017447375516] [0:0.65671301944639304] [0:0.83548972567236812] [0:0.71149717122037648] [0:0.71611411865364927] [0:0.87537260505809378] [0:0.65323373940212948] [0:0.63346852887320437] [0:0.86750178238480047] [0:0.46271296765243825] [0:0.65201059701515762] [0:0.60962859994566687] [0:0.72737436221676954] [0:0.9487728914387985] [0:0.79866047106940485] [0:0.89643931806471611] [0:0.75669974272853757] [0:0.94491165276733435] [0:0.69210756419789754] [0:0.74071861296566255] [0:0.84399974028806268] [0:0.69607978787162561] [0:0.85529310633989186] [0:0.78710254179945316] [0:0.75252205168024489] [0:0.96000426844863784] [0:0.63816949862508099] [0:0.82568449393533061] [0:0.62979973486739871] [0:0.87446033222343644] [0:0.93958858698634551] [0:0.53309325047973333] [0:0.7458986155496562] [0:0.80034727800784089] [0:1] [0:0.7109162855559743] [0:0.78943809087767047] [0:0.64085006506982889] [0:0.54248968536460673] [0:0.98609102306406882] [0:0.71436192564232892] [0:0.74978996904568718] [0:0.78992922403391186] [0:0.65594620171852047] [0:1] [0:1] [0:0.78656221190261921] [0:0.4806907162000178] [0:0.87333790594670202] [0:0.68821940789979053] [0:0.6484828638724438] [0:0.67861094666341848] [0:0.82328238277133525] [0:0.86315017656394544] [0:0.80696894298747968] [0:0.56752169973229227] [0:0.7936122655068526] [0:0.88631549627105533] [0:1] [0:0.59957228240520688] [0:1] [0:0.74615312997465877] [0:0.83390082061208781] [0:0.77097751306983198] [0:0.522668233359598] [0:1] [0:0.56953406892248504] [0:0.76078135410157766] [0:0.89977096986860927] [0:0.81686718948387338] [0:0.84745738432536244] [0:1] [0:0.83044254862946321] [0:0.80018281983314654] [0:0.74043588463972121] [0:0.80030305647833944] [0:0.81504575777264365] [0:0.76493671060362123] [0:1] [0:0.89126167745902407] [0:0.64753023108109997] [0:0.62653255668590968] [0:0.61417840274113733] [0:0.72128544946497763] [0:0.65502234887337152] [0:0.79290978662019729] [0:0.46343589840931693] [0:0.9460417871673239] [0:0.66021702050187347] [0:0.45623358528559288] [0:0.66325568637906385] [0:0.82720891536225616] [0:0.74894091031245236] [0:0.67715672855102382] [0:0.53271654678210711] [0:0.49007349084103141] [0:0.57171267868197984] [0:0.38405411367201797] [0:0.66070902202134907] [0:0.73197875721212746] [0:0.60136838897026335] [0:0.54507666320438664] [0:0.54417678724965701] [0:0.78368277579875967] [0:0.70420732937487074] [0:0.81876331703051963] [0:0.73990754221666799] [0:0.76563589767167906] [0:0.48950734541499052] [0:0.80659141875010498] [0:0.5479867314586917] [0:0.86063073529951251] [0:0.64464723730075646] [0:0.86270098806103934] [0:0.81105400824570761] [0:0.81684725902802524] [0:1] [0:0.72180992687111711] [0:0.58920433521038384] [0:0.6268455172877524] [0:0.64983745296885564] [0:0.7030176490394795] [0:0.84092175187085605] [0:0.64624126554398087] [0:0.77434979094897949] [0:0.63521451770004145] [0:0.67217219650433246] [0:0.89927902607191401] [0:0.74663517109757005] [0:0.57354820257459349] [0:0.58594080819261241] [0:0.37064376443579694] [0:0.89746827810240448] [0:0.83712316349013027] [0:0.57433434130320882] [0:0.50434559952002456] [0:0.69374190684609993] [0:0.88603868739783964] [0:0.68233193808965242] [0:0.6024922547832815] [0:0.77985010295801593] [0:0.7067715229097401] [0:0.76538977602322955] [0:0.73938019267905908] [0:0.71817289899149184] [0:0.82822766012875282] [0:0.66128582711068107] [0:0.98228873297647457] [0:0.48505546114824272] [0:1] [0:0.58293753728893583] [0:0.5250773113773245] [0:0.67445275287595741] [0:0.53111451774996732] [0:0.78779357257309368] [0:0.61777239569795062] [0:0.96539848338965495] [0:0.7386161787602461] [0:0.56528529323717369] [0:0.80324046540254479] [0:0.72108471599826929] [0:0.5565935534295875] [0:0.85630393913045366] [0:0.5573573780227844] [0:0.47194974275212459] [0:0.70788107010615653] [0:0.77039670244553748] [0:0.82688738870182421] [0:0.78495915495858171] [0:0.50469584794512568] [0:0.64607085134143327] [0:0.55228747425334768] [0:0.60541170651177922] [0:0.9020102297394178] [0:0.48098784567298969] [0:0.62109277292036602] [0:0.4310955307058667] [0:0.69365716070720207] [0:0.57429790826967764] [0:0.52705383026315011] [0:0.81611519225506068] [0:0.82187909766758138] [0:0.54573196021074699] [0:0.81505714142894403] [0:1] [0:0.79373509317075319] [0:0.72364772709945235] [0:0.77665551949185896] [0:0.89748846277185368] [0:0.87009357137533661] [0:0.88593346100822823] [0:0.69255548682055612] [0:0.63861184261940251] [0:1] [0:0.83709244462120891] [0:0.66898873638169165] [0:0.9252572746307991] [0:0.67524739014772373] [0:0.94902391621976478] [0:0.55733439279685049] [0:0.56725527157054545] [0:0.69465749015753586] [0:0.53665094095153831] [0:0.6522894850518558] [0:0.65051974989096084] [0:0.6160223368573996] [0:0.68822190513554349] [0:0.63222211389783378] [0:0.71712856417668203] [0:0.45091270722894045] [0:0.70483898653105137] [0:0.86031824221807784] [0:0.80647096503054039] [0:0.87351449439697215] [0:0.68511079608223835] [0:0.62100849819743831] [0:0.91218537216832718] [0:0.4632526182358736] [0:1] [0:0.6995126258938521] [0:0.59186546639843718] [0:0.56035981987324579] [0:0.65917287873123842] [0:0.72654498619840779] [0:0.76343444295588025] [0:0.51974033026753896] [0:0.77421755087675281] [0:0.66282052396071367] [0:0.77486899103138684] [0:0.73843067013452923] [0:0.56700098334364657] [0:0.92462789585604421] [0:0.89717581988723816] [0:0.7556867882473719] [0:0.67967526796899835] [0:0.80980865546064162] [0:0.6834549487888627] [0:0.71334025088660868] [0:0.5404804629999147] [0:0.87078621192961225] [0:0.62473124281113313] [0:0.57836778254170695] [0:0.64184291560826312] [0:1] [0:0.78104451688086307] [0:0.73338224159876486] [0:0.78213353316195722] [0:0.67689054334258369] [0:0.96280769389024057] [0:0.71097253907244273] [0:0.46955948559374105] [0:0.60971168851586399] [0:0.64716288656843024] [0:0.87419393773639187] [0:0.83934949557490035] [0:0.80360284015345829] [0:0.75287503183638971] [0:0.59757971827757039] [0:0.6291721208751444] [0:0.61978880383520873] [0:0.65712160645939421] [0:0.80882526435846946] [0:0.41306060246846515] [0:0.51782704991657547] [0:0.71423251224218387] [0:0.79861730937901254] [0:0.70092625027843614] [0:0.54295845184213298] [0:0.76913738692649125] [0:0.65486162319824182] [0:0.60823228893221415] [0:0.83060480527696201] [0:0.57167724547681598] [0:0.76601925728638909] [0:0.70089672057555763] [0:0.80245936946193186] [0:0.85232486183835365] [0:0.56027234944880577] [0:0.82116865892562041] [0:0.6825425827689241] [0:0.86189560948809896] [0:0.54603686045130173] [0:0.69473001998747552] [0:0.84420972928519011] [0:0.69819523254249671] [0:0.85002177378097998] [0:0.45997813741948368] [0:0.46113960085069733] [0:1] [0:0.85050235086599257] [0:0.84224695043895459] [0:0.64740713561335494] [0:0.97101843483843064] [0:0.86973355285550191] [0:0.63125919417910104] [0:0.82496792484710668] [0:0.69600545365635869] [0:0.72493064691287412] [0:0.80927210839644959] [0:0.81089161465627169] [0:0.73329579016068547] [0:0.69947051488911438] [0:0.77588985608180439] [0:0.78609117877029178] [0:0.82394355568575339] [0:0.73586903716727314] [0:0.55023371785408637] [0:0.6714123084463276] [0:0.71201424713635153] [0:0.52913331623295179] [0:0.58793941382019199] [0:0.49942930385294421] [0:0.63028549254739819] [0:0.45548865278039785] [0:0.85859872256345771] [0:0.69087632068515548] [0:0.86740599022883191] [0:0.60219631981002963] [0:0.72394845876934422] [0:0.65978609771174224] [0:1] [0:0.54302827408583887] [0:0.52336310687269294] [0:0.54214965472087906] [0:0.80947988692063089] [0:0.80376312667793082] [0:0.78047673705791087] [0:0.66850411838731505] [0:0.86218138226358332] [0:0.89700399399831332] [0:0.71324533143350133] [0:0.73924068154805234] [0:1] [0:0.76548925471961926] [0:0.67229912113788914] [0:0.68420194638071408] [0:0.84279006000132717] [0:0.69259482809538064] [0:0.55300503003706059] [0:1] [0:0.91801271139283558] [0:0.77369834349993938] [0:1] [0:1] [0:0.75542804450726442] [0:0.61959137903703287] [0:0.88989186505538997] [0:0.85468200296501251] [0:0.7848591709735262] [0:0.65902550726861164] [0:0.88187525749300322] [0:0.49443102429661767] [0:0.75447896278279869] [0:0.73317892145867447] [0:0.99432782468218162] [0:0.65452453411561262] [0:0.49685636045559228] [0:0.75654746369765458] [0:0.72910738373764072] [0:0.56407972680100127] [0:0.57871680104216838] [0:0.54967087939749082] [0:0.77059621285221691] [0:0.65050554386285542] [0:1] [0:0.59403295037921866] [0:0.7398426142565947] [0:0.71425989330931439] [0:0.84929036234576349] [0:0.50212424989149373] [0:0.79338024215568481] [0:0.72814621732230034] [0:0.87022390086928969] [0:0.7823172037772107] [0:1] [0:0.61916563575493333] [0:0.77371617326878539] [0:0.46428793938066693] [0:0.75069883656056868] [0:0.80195695350084428] [0:0.72697845091315472] [0:0.67138164045273174] [0:0.87757321926387466] [0:0.55207090695869843] [0:0.6105978304747155] [0:0.58659286177083547] [0:0.80993027354286162] [0:0.73412821847914633] [0:0.47321569148196413] [0:0.78631762248378689] [0:1] [0:0.53227797914940389] [0:0.60727573272773583] [0:1] [0:0.82048971158757367] [0:0.57995922839277447] [0:0.83614653049600762] [0:0.44130462359452605] [0:0.63908243089483185] [0:0.77920361332901544] [0:0.70618344099544439] [0:0.59892122213163357] [0:1] [0:0.57820029470851231] [0:0.59199621731179086] [0:0.63881617266527424] [0:0.92295839426558801] [0:0.5213227194275537] [0:0.79299892949357054] [0:0.64529740063413499] [0:0.77403396091963705] [0:1] [0:0.74786849129556865] [0:0.70856271295966333] [0:0.54444141980209126] [0:0.54851166028655518] [0:0.43348203459074769] [0:0.63101039663264546] [0:0.68054819651952458] [0:0.77056417863425997] [0:0.64476344941968389] [0:0.55177096663698133] [0:0.72670309387816578] [0:0.78102876984594738] [0:0.7966025856971547] [0:0.72909531527474336] [0:0.80815962666093233] [0:0.55424457352149814] [0:0.72395083191328824] [0:0.69243259975171056] [0:0.49934886826483027] [0:0.85279607603486363] [0:0.6230558832968548] [0:0.77470449180868461] [0:1] [0:0.62688854951701178] [0:0.52107000824599636] [0:0.76502475793039915] [0:0.53814985181541286] [0:0.66518016527311308] [0:0.63972389894667325] [0:0.85426208686985283] [0:0.54738785591050343] [0:0.50802084030660533] [0:0.65928234556370535] [0:0.81351752823530232] [0:0.7968307605051691] [0:0.89382448777880497] [0:0.63038796665592867] [0:0.6703153820730009] [0:0.79526792631664089] [0:0.78780296805536465] [0:0.49845173960553041] [0:0.5696580630592557] [0:0.44445254765126441] [0:0.5844767866102486] [0:0.65994425506013199] [0:0.81900087866050886] [0:0.58932323048427337] [0:0.67029960512902853] [0:0.76234326073041159] [0:0.54460523085954993] [0:0.3737705893263058] [0:0.84946293436729259] [0:0.72661558641403234] [0:0.78107563320765294] [0:0.52938238968100959] [0:0.79095445743638404] [0:0.68071943664093681] [0:0.85420104716309231] [0:0.83627451608451764] [0:0.95066476577907277] [0:0.76535384308900722] [0:0.56564036331461742] [0:0.73590192086913742] [0:0.70023145322396296] [0:0.69012486248071481] [0:0.73650267903995204] [0:1] [0:0.65590773974865391] [0:0.73782132648105059] [0:0.57350849410712823] [0:0.74036613072612156] [0:0.48051376784643046] [0:0.82953941142298582] [0:0.87218990070211455] [0:0.73215031776891404] [0:0.49476481536689582] [0:0.8611450899043217] [0:0.69891528930340785] [0:0.36808210898529053] [0:0.66822757665089694] [0:0.68771137572300023] [0:0.76343081692512227] [0:0.60713174254435331] [0:0.50545143883536181] [0:0.77191843070482535] [0:0.61375281175466656] [0:0.59179067213251157] [0:0.72044422550245013] [0:0.95448370636431712] [0:0.82757460404390049] [0:0.77119223900786593] [0:0.55772667313787649] [0:0.76834952447862181] [0:0.76210219476493513] [0:0.65508710062766973] [0:0.91418530960275146] [0:0.59497620028306908] [0:0.71306360280576175] [0:0.69652493095153267] [0:0.74058768578068157] [0:0.66593155719123542] [0:0.59113293662939193] [0:0.71319194751527637] [0:0.70433151727979837] [0:0.72858924466835029] [0:0.61665589392384645] [0:0.4336345741878696] [0:0.91695701602181878] [0:0.38422324343882674] [0:0.53355129927449585] [0:0.55686095808463987] [0:0.64666964297528506] [0:0.73783074138071958] [0:0.67270821153816918] [0:0.49413965567438595] [0:0.60783065961691973] [0:0.5911969537446784] [0:0.81960561260557419] [0:0.4453982913380094] [0:0.64182226447594604] [0:0.68648277651421452] [0:0.66875709628786995] [0:0.66877863230965628] [0:0.70616982938018502] [0:0.6631365359632535] [0:0.64156075355248687] [0:0.45387756705209759] [0:0.67379072215422975] [0:0.62728756075107306] [0:0.62078218597927792] [0:0.8789623346715898] [0:0.75007827955851369] [0:0.71408755859752981] [0:0.72048826079519646] [0:0.70016608904134614] [0:0.95759845306516544] [0:0.77289475932682961] [0:0.66772323721258486] [0:0.74594254916460845] [0:0.86674329159585084] [0:0.70738659969523499] [0:0.6731005585399723] [0:0.64901020013955313] [0:0.51775201736331089] [0:0.69212620491658039] [0:0.75544432547411011] [0:0.45988961192760441] [0:0.65523213736102082] [0:0.77063378190821974] [0:0.66702655809809841] [0:0.74623259093199723] [0:0.83116343277173566] [0:0.64093202956777162] [0:0.93409333293414309] [0:0.60177174703370762] [0:0.73915990245004559] [0:0.64812174774857101] [0:0.7163098272345535] [0:0.56883974981266283] [0:0.41917655418557997] [0:0.92596940779794501] [0:0.51616559848341992] [0:0.54493024405265256] [0:0.83563018317811399] [0:0.93875532726089816] [0:0.56106118010999173] [0:0.58915757347161435] [0:0.54906953828975413] [0:0.68705645679144489] [0:0.60729929031713514] [0:0.76264411381113539] [0:0.41765897846028655] [0:0.46811086293080034] [0:0.59369511727906066] [0:0.82924318075175674] [0:0.67183422676093163] [0:0.58821705764562549] [0:0.89002794399376528] [0:0.70125499514666367] [0:0.8117417814781237] [0:0.59203905801178769] [0:0.71397984037342888] [0:0.66694222486251087] [0:0.62775766829308155] [0:0.59563683142128487] [0:0.8116343641831969] [0:0.72210630123735897] [0:0.70596421762540829] [0:1] [0:0.68578250430746424] [0:0.66641080120249718] [0:0.60982189843986634] [0:0.47916934284050466] [0:0.76511459049898423] [0:0.82552883666828203] [0:0.87349208817430346] [0:0.73648906880141074] [0:0.53375045067364224] [0:1] [0:0.96549288583472381] [0:1] [0:0.73043893661425885] [0:0.76608986328690909] [0:0.65977889367772935] [0:0.91976969323799151] [0:1] [0:0.6016032161584014] [0:0.92465214300691168] [0:0.9242481801557324] [0:0.95815493731742529] [0:0.78260014367493069] [0:0.73132405425750902] [0:0.95195503192743314] [0:0.69415937168505859] [0:1] [0:0.94760641839953164] [0:0.99805901802636143] [0:0.55993474541358867] [0:1] [0:1] [0:0.64962325098426765] [0:0.77081603851250213] [0:0.87014829985562592] [0:0.47093072285029358] [0:0.54073214545748283] [0:0.59309705140125824] [0:0.65203052407596862] [0:0.69657603229345599] [0:0.69715207615978791] [0:0.80160619329047089] [0:0.76434004315995152] [0:0.68302727200545321] [0:0.61054432722982499] [0:1] [0:0.66017968385480019] [0:0.55553338134407371] [0:0.63515230960473146] [0:0.86212127425324603] [0:0.76772477548415408] [0:0.68436875016871868] [0:0.90764250651473022] [0:0.60888921561982157] [0:1] [0:0.68518575923849967] [0:0.78330868455944336] [0:0.74174717333920237] [0:0.72158013820497968] [0:0.79810684723894221] [0:0.72107827222221055] [0:0.70994999354701493] [0:0.64476594463091663] [0:0.73084958628979235] [0:0.90799554716744457] [0:0.63403472811379358] [0:0.65640065082676169] [0:0.74906764461691266] [0:0.63151888116167743] [0:0.81293113401932726] [0:0.8009314955791188] [0:0.62056668855256891] [0:0.69800652008161734] [0:0.67317684160161539] [0:0.7531721264887945] [0:0.68750489534085268] [0:0.72773733726221079] [0:0.54932622762439931] [0:0.79247464410576607] [0:1] [0:0.6296294971961226] [0:1] [0:0.71121371469899142] [0:1] [0:0.78900619728977706] [0:0.69391096774205763] [0:0.40524589379076614] [0:1] [0:0.87353810056339409] [0:0.91898365927603187] [0:1] [0:0.74891202879509744] [0:0.65798818764346956] [0:0.46413956598832418] [0:0.66345339233627798] [0:0.82334932765747737] [0:0.79188571835233323] [0:0.59322003166514126] [0:0.81678703481288484] [0:0.63796503970156582] [0:0.76616051574152311] [0:0.87849233651842218] [0:0.68070979237763929] [0:0.80962028372433614] [0:0.83577272224670196] [0:0.59868125902384539] [0:0.87046434737923528] [0:0.594847889823372] [0:0.80615746686508305] [0:0.88567830641746714] [0:0.42401469849516538] [0:0.74832760203404391] [0:0.80570780254032492] [0:0.93599803489539402] [0:0.8145754298923068] [0:0.64572498283233049] [0:1] [0:0.78538162999784122] [0:0.63110020260044453] [0:0.89061793728523075] [0:0.59863299538418646] [0:1] [0:0.84779873951313856] [0:0.89319093199221489] [0:0.49953228110401071] [0:0.68307930370281822] [0:0.73961240445641974] [0:0.7237968843611543] [0:0.79672656119766194] [0:0.67500522611010672] [0:0.68069471233374579] [0:0.57374152258368916] [0:1] [0:0.93291620764396732] [0:0.73867468482723542] [0:0.69128626784519176] [0:0.75520453854395775] [0:0.79985108682009509] [0:0.75292971037293877] [0:0.71303647933481618] [0:0.79867488650565321] [0:0.65759261309553074] [0:0.66438742801717565] [0:0.69329534274852522] [0:0.63424612385259427] [0:0.7497179323438059] [0:0.82577301208957798] [0:0.7866183112173315] [0:0.67596762501370633] [0:0.59730178513193999] [0:0.79166881703744363] [0:0.47562726803070338] [0:0.78497365962494159] [0:0.53476135348483023] [0:0.44006875968781156] [0:0.82564073763545864] [0:0.4772692586277909] [0:0.55041765867349957] [0:0.48317400184765497] [0:0.78440681348046115] [0:0.71445144518329373] [0:0.73527408418368034] [0:0.75484550855930632] [0:0.68238603117214691] [0:0.92394768019874374] [0:0.46482817794086123] [0:0.75475669781282806] [0:0.94237018862735444] [0:0.77900926494751266] [0:0.49012568657542965] [0:0.76582307177719522] [0:0.49490191872472872] [0:0.7474863382497412] [0:0.71924488888870264] 